%YAML:1.0
my_svm: !!opencv-ml-svm
   svm_type: C_SVC
   kernel: { type:RBF, gamma:5.3830000000000000e+00 }
   C: 2.6699999999999999e+00
   term_criteria: { epsilon:1.1920928955078125e-07, iterations:1000 }
   var_all: 64
   var_count: 64
   class_count: 10
   class_labels: !!opencv-matrix
      rows: 1
      cols: 10
      dt: i
      data: [ 0, 1, 2, 3, 4, 5, 6, 7, 8, 9 ]
   sv_total: 415
   support_vectors:
      - [ 2.21567199e-01, 1.76754057e-01, 1.80844739e-01, 1.21091597e-01,
          4.63769548e-02, 0., 0., 8.57848749e-02, 2.21138373e-01,
          1.72288820e-01, 9.28316340e-02, 6.69876635e-02, 0., 0., 0.,
          1.56130731e-01, 1.77343503e-01, 0., 0., 0., 1.16522744e-01,
          1.13785543e-01, 1.25872105e-01, 2.37597063e-01, 4.94847670e-02,
          0., 0., 9.87480953e-03, 1.43449351e-01, 2.00393483e-01,
          2.11365879e-01, 1.40197963e-01, 0., 0., 0., 0., 1.29876420e-01,
          1.95476457e-01, 1.61986381e-01, 2.20458388e-01, 1.18746042e-01,
          2.42301282e-02, 0., 0., 6.57269657e-02, 1.40842512e-01,
          1.26157105e-01, 2.32137561e-01, 2.09136799e-01, 1.66071579e-01,
          9.22951177e-02, 5.68293855e-02, 0., 0., 4.24234755e-02,
          1.71713606e-01, 2.08418444e-01, 1.71839550e-01, 1.77655473e-01,
          1.28330007e-01, 0., 0., 4.47366759e-02, 1.13658875e-01 ]
      - [ 2.41808236e-01, 1.75393507e-01, 2.04591423e-01, 9.98748615e-02,
          1.00305155e-01, 0., 0., 1.01535141e-01, 1.98863894e-01,
          1.05283223e-01, 9.15002674e-02, 5.76990731e-02, 0., 0.,
          5.15417010e-02, 1.32402480e-01, 4.20234054e-02, 0., 0.,
          7.01367185e-02, 8.73044953e-02, 1.09748237e-01, 1.16949849e-01,
          1.49708435e-01, 1.24491714e-01, 1.05784893e-01, 0.,
          5.54533787e-02, 1.60694301e-01, 2.29254380e-01, 1.30366892e-01,
          2.57919759e-01, 1.19752906e-01, 7.00152516e-02, 0.,
          1.69779137e-02, 1.56792358e-01, 2.25845248e-01, 1.68361545e-01,
          2.49715522e-01, 5.77886589e-02, 8.00072309e-03, 0., 0.,
          1.15448132e-01, 1.10326469e-01, 1.17643453e-01, 1.52755037e-01,
          1.61077783e-01, 1.77564159e-01, 9.10361633e-02, 5.91627099e-02,
          0., 0., 1.84768792e-02, 1.35924637e-01, 2.31587976e-01,
          1.75185218e-01, 1.77846670e-01, 1.78989872e-01, 0.,
          8.69765356e-02, 0., 8.00135061e-02 ]
      - [ 1.39133573e-01, 2.21540108e-01, 1.05711065e-01, 1.17929846e-01,
          1.20917097e-01, 2.70974599e-02, 0., 2.40009874e-01,
          7.83713385e-02, 9.37721208e-02, 1.05928078e-01, 1.15102425e-01,
          0., 0., 1.63265076e-02, 2.10956499e-01, 0., 1.96459088e-02, 0.,
          0., 6.86953589e-02, 8.71748924e-02, 1.53526038e-01,
          2.38373801e-01, 0., 0., 0., 0., 1.59408167e-01, 1.54615641e-01,
          1.90766856e-01, 2.60995537e-01, 0., 0., 0., 2.34770179e-02,
          1.66107953e-01, 1.45637542e-01, 1.87202021e-01, 2.63133436e-01,
          2.22950727e-02, 0., 0., 0., 6.86271191e-02, 1.26580939e-01,
          1.10824421e-01, 2.49128938e-01, 2.23761335e-01, 9.61048454e-02,
          9.92034450e-02, 1.19200893e-01, 0., 0., 1.42378733e-02,
          1.45849928e-01, 2.09212959e-01, 1.93915024e-01, 1.54610813e-01,
          1.17906243e-01, 1.20917097e-01, 0., 7.11893663e-03,
          1.20523095e-01 ]
      - [ 2.31877014e-01, 2.19442412e-01, 2.55753905e-01, 1.56038001e-01,
          1.37430504e-01, 0., 0., 0., 0., 1.13244437e-01, 1.17934346e-01,
          8.91383290e-02, 0., 0., 0., 4.13233228e-02, 9.62566063e-02, 0.,
          0., 0., 1.11617208e-01, 0., 1.31486729e-01, 1.11168951e-01, 0.,
          0., 0., 0., 2.12922737e-01, 2.59118199e-01, 2.42047474e-01,
          1.84325233e-01, 5.54417707e-02, 0., 0., 0., 2.08873704e-01,
          2.47881323e-01, 2.46372223e-01, 1.37355924e-01, 1.58993483e-01,
          3.43331620e-02, 0., 0., 9.26560313e-02, 1.18385658e-01,
          4.66207862e-02, 8.59974995e-02, 0., 1.60116315e-01,
          1.09913193e-01, 0., 0., 0., 4.38512415e-02, 1.32003486e-01,
          1.33666202e-01, 2.81278551e-01, 2.26762310e-01, 1.61046237e-01,
          1.37430504e-01, 0., 0., 0. ]
      - [ 2.20118403e-01, 2.12982982e-01, 1.53465658e-01, 2.07333535e-01,
          0., 0., 0., 0., 2.22415954e-01, 1.25663579e-01, 1.25204608e-01,
          7.46215284e-02, 0., 0., 0., 0., 2.09438905e-01, 9.00971144e-03,
          0., 0., 1.17669389e-01, 1.18323803e-01, 6.11416623e-02,
          1.18465856e-01, 2.09438905e-01, 9.00971144e-03, 0., 0.,
          1.83448344e-01, 1.93224296e-01, 1.86985955e-01, 1.33006379e-01,
          2.09438905e-01, 9.00971144e-03, 0., 0., 1.86281174e-01,
          1.97187215e-01, 1.72355860e-01, 1.58492655e-01, 1.70961484e-01,
          9.00971144e-03, 0., 0., 7.56125599e-02, 1.44690484e-01,
          1.03844687e-01, 7.79502764e-02, 2.22415954e-01, 1.53228462e-01,
          9.03157219e-02, 7.53453597e-02, 0., 0., 0., 0., 2.38320470e-01,
          2.17591748e-01, 1.63633779e-01, 1.81962490e-01, 0., 0., 0., 0. ]
      - [ 1.68756738e-01, 2.22539857e-01, 1.47861630e-01, 1.14910871e-01,
          6.90344498e-02, 0., 0., 1.57017201e-01, 2.09760979e-01,
          1.99327186e-01, 0., 6.04875386e-02, 0., 0., 1.02001466e-02,
          1.67161807e-01, 1.36967957e-01, 0., 0., 0., 5.90378195e-02,
          4.08030748e-02, 1.98694512e-01, 1.77179560e-01, 1.94535881e-01,
          0., 0., 7.35400543e-02, 1.16383784e-01, 1.19356669e-01,
          2.54962325e-01, 1.72825173e-01, 1.97460055e-01, 0.,
          5.60001880e-02, 0., 1.24184534e-01, 9.78392512e-02,
          2.13518664e-01, 2.51765728e-01, 0., 0., 0., 5.95183223e-02, 0.,
          0., 1.33973375e-01, 2.08845139e-01, 2.16411337e-01,
          1.28341541e-01, 0., 0., 6.09637573e-02, 0., 1.39671257e-02,
          9.78204012e-02, 2.18477994e-01, 2.23390937e-01, 1.06858395e-01,
          7.66936541e-02, 9.41104740e-02, 0., 5.76445311e-02,
          1.90433383e-01 ]
      - [ 2.42137536e-01, 1.62952900e-01, 1.63811326e-01, 1.65017709e-01,
          0., 0., 4.82482016e-02, 1.05763815e-01, 2.11664855e-01,
          5.40304072e-02, 1.90978467e-01, 0., 0., 0., 0., 9.65608805e-02,
          0., 0., 4.80415709e-02, 0., 1.00461841e-01, 1.09486639e-01,
          1.26904473e-01, 2.26674035e-01, 9.71199051e-02, 0., 0.,
          6.95959851e-02, 1.69088125e-01, 1.09339751e-01, 1.97347224e-01,
          2.55579829e-01, 1.03466690e-01, 0., 0., 7.56631270e-02,
          1.67801335e-01, 1.46333665e-01, 1.43873155e-01, 2.59628534e-01,
          8.24436247e-02, 0., 0., 2.09919475e-02, 1.12377770e-01,
          9.46217850e-02, 1.33188635e-01, 2.15132549e-01, 2.07854465e-01,
          1.58631623e-01, 1.24261446e-01, 0., 0., 0., 2.16342583e-02,
          1.29339829e-01, 2.74107784e-01, 1.29560515e-01, 1.07225373e-01,
          1.68524489e-01, 7.58066550e-02, 0., 2.21962817e-02,
          1.29399657e-01 ]
      - [ 2.47791678e-01, 1.94709539e-01, 1.62363678e-01, 1.22554399e-01,
          0., 0., 0., 1.21223412e-01, 2.08205655e-01, 1.72589391e-01, 0.,
          9.13191810e-02, 7.86354840e-02, 0., 0., 7.17267916e-02,
          1.91838086e-01, 0., 0., 7.92018697e-02, 9.26200524e-02, 0.,
          1.90944195e-01, 8.90985355e-02, 2.08581448e-01, 0., 0., 0.,
          1.23030193e-01, 1.62789971e-01, 1.97518647e-01, 1.72385797e-01,
          1.70697138e-01, 0., 0., 0., 1.22636937e-01, 1.60786211e-01,
          1.99597061e-01, 1.73325852e-01, 1.90846086e-01, 0., 0.,
          7.99662322e-02, 9.38196033e-02, 0., 1.71415806e-01,
          1.74071476e-01, 2.22694770e-01, 1.71415806e-01, 0.,
          8.91813263e-02, 8.38387981e-02, 0., 0., 6.85002059e-02,
          2.48537064e-01, 1.99119627e-01, 1.60237476e-01, 1.22877069e-01,
          0., 0., 0., 9.91095752e-02 ]
      - [ 2.64460713e-01, 1.74037129e-01, 1.17313802e-01, 1.09148391e-01,
          6.28011450e-02, 7.28427768e-02, 0., 1.52240753e-01,
          2.60505825e-01, 1.33628070e-01, 0., 0., 0., 0., 0.,
          1.23266369e-01, 1.34271994e-01, 0., 0., 0., 0., 6.58732802e-02,
          1.07922181e-02, 2.52404630e-01, 1.95040047e-01, 0.,
          4.39890064e-02, 6.72894642e-02, 9.64636803e-02, 9.78884250e-02,
          1.84304565e-01, 2.44330853e-01, 1.56736821e-01, 9.25134271e-02,
          0., 8.95470977e-02, 6.60975650e-02, 1.03009455e-01,
          1.90248892e-01, 2.75703281e-01, 5.11358045e-02, 0., 0., 0., 0.,
          6.71739653e-02, 3.42223682e-02, 2.63978094e-01, 2.69095331e-01,
          8.40851068e-02, 0., 0., 0., 0., 0., 0., 2.86532372e-01,
          1.65666983e-01, 1.36093512e-01, 8.58588293e-02, 5.55479974e-02,
          7.59844035e-02, 0., 1.65558442e-01 ]
      - [ 2.59295732e-01, 1.81486398e-01, 1.18530318e-01, 9.74767134e-02,
          1.01663508e-01, 0., 0., 1.73929751e-01, 2.69445181e-01, 0.,
          2.46219710e-02, 0., 0., 0., 0., 1.33943170e-01, 1.36003867e-01,
          0., 0., 0., 6.91364855e-02, 4.99569960e-02, 1.06783867e-01,
          1.78716108e-01, 2.08834559e-01, 1.04598656e-01, 0.,
          4.19632010e-02, 1.19213775e-01, 1.17578574e-01, 1.81659803e-01,
          2.49424860e-01, 2.26197958e-01, 5.59958555e-02, 5.77968284e-02,
          5.67022860e-02, 1.07740812e-01, 1.36462703e-01, 1.37960181e-01,
          2.62849957e-01, 1.33419558e-01, 0., 0., 0., 6.13299012e-02,
          3.97998318e-02, 0., 1.99414581e-01, 2.23403424e-01,
          1.03502728e-01, 0., 2.80514695e-02, 0., 0., 0., 0.,
          2.90988863e-01, 1.76705167e-01, 1.15818940e-01, 1.22483395e-01,
          7.41482973e-02, 0., 4.67302054e-02, 2.00838074e-01 ]
      - [ 2.17094108e-01, 2.34625921e-01, 1.81776628e-01, 1.23183638e-01,
          1.78620785e-01, 0., 0., 0., 1.63618177e-01, 9.98412743e-02,
          1.40641332e-01, 1.23756282e-01, 0., 0., 0., 0., 7.90946092e-03,
          6.65103737e-03, 0., 0., 1.21748991e-01, 1.60862952e-01,
          1.06033191e-01, 7.02862144e-02, 1.27497658e-01, 0., 0., 0.,
          2.17134222e-01, 2.15824649e-01, 1.53958455e-01, 2.50868320e-01,
          1.26347765e-01, 0., 0., 0., 2.17055127e-01, 1.68484941e-01,
          2.38932326e-01, 2.13854328e-01, 1.45752495e-02, 1.15199350e-02,
          0., 0., 7.97349960e-02, 1.64316028e-01, 1.38481990e-01, 0.,
          1.59143150e-01, 1.17571130e-01, 1.18834592e-01, 1.21758372e-01,
          0., 0., 0., 0., 2.20403939e-01, 2.22750470e-01, 2.01898932e-01,
          1.48588851e-01, 1.26303971e-01, 0., 0., 0. ]
      - [ 2.28682965e-01, 1.92451343e-01, 1.04570165e-01, 1.66424811e-01,
          7.10130036e-02, 0., 0., 1.26527175e-01, 1.68476060e-01,
          2.09989995e-01, 9.59450528e-02, 2.99867634e-02, 0., 0.,
          3.76476049e-02, 1.29015416e-01, 9.36781093e-02, 3.16895023e-02,
          0., 1.35995731e-01, 0., 9.23096985e-02, 9.17930529e-02,
          2.52619386e-01, 8.00511539e-02, 0., 0., 0., 1.27694622e-01,
          2.07479015e-01, 1.37875646e-01, 2.51900077e-01, 9.92168635e-02,
          0., 0., 6.36993274e-02, 1.65704563e-01, 1.44484848e-01,
          1.45900890e-01, 2.59705454e-01, 7.46381879e-02, 9.13362857e-03,
          0., 0., 1.00637026e-01, 1.04932733e-01, 1.36154264e-01,
          2.16388866e-01, 1.88759029e-01, 1.62409723e-01, 0.,
          9.26913396e-02, 6.70980960e-02, 0., 4.25094254e-02,
          1.31188363e-01, 2.35458374e-01, 1.83641419e-01, 1.65123641e-01,
          1.26537144e-01, 0., 0., 2.18335465e-02, 1.51361749e-01 ]
      - [ 2.09265098e-01, 2.11226806e-01, 1.44760013e-01, 1.85497105e-01,
          0., 0., 3.69557478e-02, 1.16712734e-01, 1.99656501e-01,
          1.29817426e-01, 8.93982872e-02, 7.25502744e-02, 0., 0.,
          3.56214307e-02, 1.16183236e-01, 0., 0., 0., 0., 7.87759125e-02,
          1.03983484e-01, 1.10395975e-01, 2.38582641e-01, 2.05335077e-02,
          1.59562360e-02, 0., 0., 1.95176110e-01, 1.50034517e-01,
          2.09910676e-01, 2.44907454e-01, 1.65184498e-01, 2.82132402e-02,
          0., 0., 2.19226554e-01, 9.75821391e-02, 1.74357235e-01,
          2.67908782e-01, 0., 0., 0., 0., 1.15164801e-01, 1.17038846e-01,
          1.30860940e-01, 1.29550546e-01, 1.80317387e-01, 9.99828726e-02,
          6.84977770e-02, 1.16297275e-01, 0., 0., 2.85433829e-02,
          1.48092866e-01, 2.23300397e-01, 1.81315079e-01, 1.67627558e-01,
          1.79164067e-01, 0., 0., 4.64113243e-02, 1.66663975e-01 ]
      - [ 2.33643025e-01, 2.54711509e-01, 1.96847752e-01, 1.32756561e-01,
          1.92272887e-01, 0., 0., 0., 1.00719817e-01, 9.90527049e-02,
          1.25523090e-01, 0., 0., 0., 0., 0., 1.92272887e-01, 0., 0., 0.,
          0., 1.25523090e-01, 9.90527049e-02, 1.00719817e-01, 0., 0., 0.,
          0., 2.33651802e-01, 1.96847752e-01, 2.55092293e-01,
          1.33019015e-01, 0., 0., 0., 0., 2.33767256e-01, 1.97211698e-01,
          2.55848199e-01, 2.33734027e-01, 0., 0., 0., 0., 1.03976935e-01,
          8.50482583e-02, 9.17584151e-02, 1.06071770e-01, 1.06071770e-01,
          9.17584151e-02, 8.50482583e-02, 1.03976935e-01, 0., 0., 0., 0.,
          2.33734027e-01, 2.55848199e-01, 1.97211698e-01, 1.32959664e-01,
          1.92272887e-01, 0., 0., 0. ]
      - [ 2.71001339e-01, 2.13139713e-01, 1.37326911e-01, 1.08352691e-01,
          0., 0., 3.50300558e-02, 5.49028367e-02, 2.83567876e-01,
          9.35030803e-02, 0., 0., 0., 0., 0., 0., 2.26787820e-01, 0., 0.,
          0., 6.06709905e-02, 0., 9.35030803e-02, 0., 2.90621758e-01, 0.,
          0., 0., 8.15440193e-02, 1.67445347e-01, 2.34203219e-01,
          1.28568247e-01, 2.78317600e-01, 0., 0., 0., 1.08284943e-01,
          1.60671785e-01, 1.96013346e-01, 1.54116064e-01, 2.26787820e-01,
          0., 0., 0., 0., 8.89144242e-02, 0., 8.91087577e-02,
          2.79413193e-01, 0., 9.17025432e-02, 0., 6.36553392e-02, 0., 0.,
          0., 2.74506480e-01, 2.17097253e-01, 1.75960213e-01,
          8.20703506e-02, 0., 0., 0., 8.70658457e-02 ]
      - [ 2.61177480e-01, 2.15942472e-01, 9.28100199e-02, 1.29122004e-01,
          0., 0., 6.85263947e-02, 7.27192760e-02, 2.44205549e-01,
          1.60423130e-01, 0., 9.50277001e-02, 1.49656348e-02, 0.,
          5.32432012e-02, 0., 1.06876008e-01, 5.32432012e-02, 0., 0.,
          9.50277001e-02, 0., 1.59560785e-01, 1.45430520e-01,
          2.08291680e-01, 6.85263947e-02, 0., 1.34376548e-02,
          9.50277001e-02, 1.54484972e-01, 1.95121869e-01, 2.37870619e-01,
          2.12626636e-01, 7.78226852e-02, 0., 0., 1.28719583e-01,
          9.26633999e-02, 2.01252922e-01, 2.57069528e-01, 1.06876008e-01,
          5.36875166e-02, 0., 0., 9.52631012e-02, 0., 1.35216147e-01,
          1.69278815e-01, 2.58955568e-01, 1.35216147e-01, 7.07681151e-03,
          9.50277001e-02, 0., 0., 5.36875166e-02, 0., 2.78413951e-01,
          1.80159733e-01, 1.29086927e-01, 1.28719583e-01, 0., 0.,
          7.78226852e-02, 8.25929418e-02 ]
      - [ 1.67638898e-01, 2.43343860e-01, 1.48043424e-01, 1.24890685e-01,
          0., 0., 2.56343484e-02, 2.11570159e-01, 1.45581946e-01,
          1.34548098e-01, 1.37565449e-01, 0., 0., 0., 3.98977511e-02,
          1.83646694e-01, 1.18228614e-01, 0., 0., 2.92473305e-02,
          1.03777274e-01, 6.84508383e-02, 1.90035269e-01, 6.34059012e-02,
          2.09245861e-01, 0., 0., 0., 1.22586533e-01, 1.98199540e-01,
          1.52906448e-01, 2.42823452e-01, 1.31608501e-01, 1.03498809e-01,
          0., 0., 1.26213208e-01, 2.00456306e-01, 1.38888329e-01,
          2.32076049e-01, 8.67819563e-02, 0., 0., 3.57716270e-02,
          1.07777946e-01, 1.30155906e-01, 9.67894420e-02, 1.51097715e-01,
          1.40654549e-01, 1.87505946e-01, 1.03320271e-01, 0., 0., 0.,
          4.94844466e-02, 1.43314168e-01, 2.34835163e-01, 2.05740809e-01,
          1.43074006e-01, 1.22689441e-01, 0., 0., 1.12180766e-02,
          1.91719204e-01 ]
      - [ 2.52286226e-01, 2.01499835e-01, 1.11335464e-01, 1.60043374e-01,
          6.31866977e-02, 0., 0., 0., 2.28741884e-01, 1.95204139e-01, 0.,
          1.00011848e-01, 0., 0., 0., 0., 2.24870771e-01, 0., 0.,
          8.26361924e-02, 9.81879979e-02, 0., 1.69593140e-01,
          1.02496892e-01, 2.26308972e-01, 0., 0., 0., 1.22456104e-01,
          1.60520613e-01, 2.26757765e-01, 8.02959576e-02, 1.87029362e-01,
          0., 0., 6.78640306e-02, 1.59272701e-01, 1.29576653e-01,
          1.88506722e-01, 1.78913787e-01, 1.77531362e-01, 0., 0., 0., 0.,
          1.00032531e-01, 1.97929546e-01, 1.23736665e-01, 2.23125547e-01,
          1.90707341e-01, 0., 9.02414471e-02, 7.75210634e-02, 0., 0., 0.,
          2.52106518e-01, 2.07006499e-01, 1.63951337e-01, 1.22243695e-01,
          0., 0., 0., 5.77011183e-02 ]
      - [ 2.05619454e-01, 2.21598610e-01, 1.50622636e-01, 1.15323298e-01,
          0., 3.71198542e-02, 0., 1.33446366e-01, 2.12988853e-01,
          1.78869098e-01, 1.04956090e-01, 0., 0., 0., 3.76812704e-02,
          1.23594023e-01, 0., 1.54304095e-02, 0., 9.26983282e-02,
          8.63846466e-02, 0., 1.41125008e-01, 2.47036725e-01,
          1.04046017e-01, 0., 0., 0., 1.48317873e-01, 1.55314699e-01,
          1.59601256e-01, 2.68688142e-01, 1.14934511e-01, 0., 0., 0.,
          1.40396282e-01, 1.19750023e-01, 1.92588434e-01, 2.14589626e-01,
          1.28554091e-01, 2.12693531e-02, 0., 8.55014399e-02, 0.,
          7.04685599e-02, 1.19447306e-01, 2.48090371e-01, 2.45328009e-01,
          1.90207168e-01, 6.05547391e-02, 8.60558450e-02, 0., 0.,
          2.18218956e-02, 1.59879088e-01, 1.84142068e-01, 1.96154013e-01,
          1.86633915e-01, 1.20377474e-01, 6.84078336e-02, 3.44965421e-02,
          0., 0. ]
      - [ 2.42807373e-01, 2.28422984e-01, 1.26015067e-01, 1.65050492e-01,
          0., 0., 1.11333646e-01, 1.21144541e-01, 1.78056598e-01,
          1.09396935e-01, 7.46292919e-02, 0., 0., 0., 0., 1.40311643e-01,
          1.77509561e-01, 0., 0., 0., 0., 0., 1.34979755e-01,
          1.25034884e-01, 1.94884241e-01, 0., 0., 0., 1.27942994e-01,
          1.62917599e-01, 2.26312220e-01, 2.45404288e-01, 1.93763345e-01,
          4.83304486e-02, 5.24255298e-02, 0., 1.61590531e-01,
          8.28165263e-02, 1.65217116e-01, 3.00223619e-01, 1.43042907e-01,
          0., 0., 0., 0., 0., 1.45947769e-01, 1.06959231e-01,
          2.10584611e-01, 0., 6.84679076e-02, 0., 0., 3.20570208e-02,
          2.21694689e-02, 1.38861790e-01, 2.40348011e-01, 2.64479548e-01,
          1.14507936e-01, 1.28057957e-01, 0., 0., 4.52577621e-02,
          1.29259840e-01 ]
      - [ 2.60146469e-01, 2.15788648e-01, 1.10835165e-01, 7.88387433e-02,
          5.65595664e-02, 7.34676123e-02, 6.36291131e-02, 1.26186803e-01,
          2.66797632e-01, 1.25258654e-01, 0., 0., 0., 0., 0., 0.,
          1.48117572e-01, 0., 0., 4.79715690e-02, 9.04646516e-02,
          5.50212413e-02, 9.88876745e-02, 2.14994639e-01, 2.11908355e-01,
          0., 0., 0., 1.03092946e-01, 1.82669416e-01, 1.55463547e-01,
          2.49845639e-01, 1.83413237e-01, 4.82506938e-02, 5.59952855e-02,
          4.10682037e-02, 1.06135212e-01, 1.23133250e-01, 1.45067394e-01,
          2.72130966e-01, 0., 0., 0., 0., 0., 7.53759369e-02,
          6.36339039e-02, 2.25204915e-01, 2.87776798e-01, 1.38516665e-01,
          7.80484229e-02, 0., 0., 0., 0., 0., 2.58098513e-01,
          2.38991603e-01, 1.58352271e-01, 0., 7.21655786e-02, 0., 0., 0. ]
      - [ 2.78278142e-01, 1.26260459e-01, 1.46167204e-01, 1.80100262e-01,
          7.86277801e-02, 0., 0., 1.01745941e-01, 1.97623163e-01,
          1.69064641e-01, 9.37170312e-02, 0., 0., 0., 2.31859088e-02,
          9.37752947e-02, 4.92683090e-02, 0., 0., 1.27577409e-01, 0.,
          9.05758739e-02, 0., 2.51793951e-01, 9.43493396e-02, 0., 0., 0.,
          1.46499172e-01, 2.22991854e-01, 1.31633535e-01, 2.71523416e-01,
          7.37581328e-02, 0., 3.66595052e-02, 7.24295378e-02,
          1.67288095e-01, 1.16666585e-01, 1.89285830e-01, 2.67819405e-01,
          2.95864120e-02, 0., 0., 0., 0., 1.40936792e-01, 1.23789616e-01,
          2.11866990e-01, 1.83453351e-01, 1.56653136e-01, 9.14818719e-02,
          6.25565425e-02, 0., 0., 1.10897953e-02, 8.91660973e-02,
          2.73099244e-01, 1.62158042e-01, 1.63912803e-01, 1.56590804e-01,
          0., 0., 0., 1.27012014e-01 ]
      - [ 2.65815198e-01, 1.83925375e-01, 1.09885067e-01, 1.74358621e-01,
          7.33927861e-02, 0., 0., 0., 2.39461675e-01, 9.06959623e-02,
          1.42038912e-01, 0., 0., 0., 0., 3.92960347e-02, 0., 0., 0.,
          6.01207465e-02, 0., 9.11686942e-02, 1.37242228e-01,
          2.40922958e-01, 0., 0., 0., 2.97417231e-02, 1.46051526e-01,
          1.65971756e-01, 2.05163211e-01, 2.61741281e-01, 1.86426535e-01,
          0., 0., 6.84881359e-02, 1.73683584e-01, 9.05866995e-02,
          2.13672891e-01, 2.22531021e-01, 1.45967796e-01, 0., 0., 0., 0.,
          1.06130987e-01, 1.93961889e-01, 8.85226876e-02, 2.29693979e-01,
          1.18788995e-01, 9.30741131e-02, 8.73288289e-02, 8.14635381e-02,
          0., 0., 0., 2.63876975e-01, 1.89365849e-01, 1.92830607e-01,
          1.42220855e-01, 0., 0., 0., 8.64776522e-02 ]
      - [ 2.47682214e-01, 1.92936525e-01, 9.48699266e-02, 1.62260711e-01,
          7.18309060e-02, 0., 0., 1.13704287e-01, 1.80778846e-01,
          1.75845310e-01, 1.48050651e-01, 0., 0., 0., 0., 9.13182199e-02,
          1.57210186e-01, 0., 0., 0., 0., 1.15512885e-01, 1.99284539e-01,
          9.14849415e-02, 1.92456111e-01, 0., 0., 7.18309060e-02,
          1.62260711e-01, 9.51781049e-02, 2.14314431e-01, 1.91392422e-01,
          2.27988005e-01, 0., 0., 7.19179139e-02, 1.62260711e-01,
          9.51781049e-02, 2.12791741e-01, 1.68424964e-01, 1.91566736e-01,
          0., 0., 0., 0., 1.70621470e-01, 1.48098171e-01, 0.,
          2.10007206e-01, 1.48135930e-01, 1.70621142e-01, 0., 0., 0., 0.,
          6.54813647e-02, 2.46529862e-01, 2.12791741e-01, 9.51781049e-02,
          1.62260711e-01, 7.18743652e-02, 0., 0., 8.87440518e-02 ]
      - [ 2.21630335e-01, 2.21059591e-01, 2.12036684e-01, 1.85930654e-01,
          0., 0., 0., 0., 1.29568189e-01, 1.79312453e-01, 0.,
          1.41203642e-01, 0., 0., 0., 0., 1.73056901e-01, 0., 0., 0.,
          1.44545764e-01, 8.91180411e-02, 1.56295359e-01, 1.31032765e-01,
          0., 0., 0., 0., 1.80931985e-01, 1.66624442e-01, 2.71796346e-01,
          1.19692430e-01, 0., 0., 0., 0., 1.85996160e-01, 1.66624442e-01,
          2.58796424e-01, 2.24528298e-01, 0., 0., 0., 0., 1.44545764e-01,
          8.94850194e-02, 1.69028223e-01, 1.19474813e-01, 1.20064035e-01,
          1.70312271e-01, 8.99923146e-02, 7.69358799e-02, 1.22369714e-01,
          0., 0., 0., 2.24862427e-01, 2.42905900e-01, 1.91654831e-01,
          1.39079258e-01, 1.22369714e-01, 0., 0., 0. ]
      - [ 2.52396077e-01, 2.13835403e-01, 1.30097240e-01, 1.36804596e-01,
          0., 0., 7.32204393e-02, 1.25700161e-01, 2.80511379e-01, 0.,
          7.51117095e-02, 0., 0., 0., 0., 0., 1.25700042e-01, 0., 0., 0.,
          0., 0., 8.56796354e-02, 2.48529315e-01, 1.77766874e-01,
          7.29351416e-02, 0., 0., 1.37830749e-01, 1.19384788e-01,
          2.00045720e-01, 2.38705695e-01, 2.94582486e-01, 0.,
          7.41719902e-02, 0., 1.36022821e-01, 1.06169365e-01,
          2.26625144e-01, 2.48908639e-01, 0., 0., 0., 0., 0., 0.,
          7.41578713e-02, 8.88888240e-02, 2.94792742e-01, 7.47416914e-02,
          0., 0., 0., 0., 0., 0., 2.49097377e-01, 2.32327804e-01,
          9.15701464e-02, 1.35884807e-01, 0., 7.37233683e-02, 0.,
          8.82755369e-02 ]
      - [ 2.61277854e-01, 1.75323859e-01, 1.12554446e-01, 1.48069367e-01,
          6.67093396e-02, 0., 0., 1.22354150e-01, 2.49674395e-01,
          1.18558489e-01, 1.02537990e-01, 0., 0., 0., 0., 0.,
          1.51352167e-01, 9.31820795e-02, 0., 8.76320675e-02, 0., 0.,
          1.53885379e-01, 2.64590412e-01, 1.19705245e-01, 0.,
          4.95838486e-02, 7.93746412e-02, 1.17737599e-01, 1.25160009e-01,
          2.24338666e-01, 2.06547111e-01, 1.65256724e-01, 0., 0., 0.,
          1.38804525e-01, 1.32190555e-01, 1.86312437e-01, 1.68097064e-01,
          1.61266029e-01, 7.29376450e-02, 0., 0., 0., 9.45748314e-02,
          1.56935811e-01, 2.03315914e-01, 2.68020332e-01, 1.44575551e-01,
          0., 0., 8.84552523e-02, 6.18663169e-02, 3.44079100e-02,
          1.12816282e-01, 2.19354838e-01, 2.13163465e-01, 1.17131837e-01,
          1.21576838e-01, 0., 5.63782528e-02, 6.86938688e-02, 0. ]
      - [ 2.00931728e-01, 2.08695367e-01, 1.34046361e-01, 1.25791043e-01,
          0., 0., 0., 8.39022547e-02, 2.41320983e-01, 1.84814453e-01,
          8.83693844e-02, 0., 0., 0., 0., 1.54324859e-01, 2.19844744e-01,
          0., 0., 0., 0., 9.59295630e-02, 1.88191459e-01, 2.19871968e-01,
          1.34649217e-01, 5.39451577e-02, 0., 0., 1.45757765e-01,
          5.41571155e-02, 2.42079183e-01, 1.25870779e-01, 8.83245319e-02,
          0., 0., 4.53624651e-02, 1.17391124e-01, 1.49711862e-01,
          1.93045989e-01, 1.73025146e-01, 1.79074198e-01, 0., 0., 0., 0.,
          8.85490179e-02, 1.84901953e-01, 2.29081750e-01, 2.29847953e-01,
          1.88191459e-01, 9.59295630e-02, 0., 0., 0., 0., 1.23946950e-01,
          2.17178315e-01, 1.79104298e-01, 1.61835998e-01, 1.14080116e-01,
          9.07245800e-02, 0., 5.39451577e-02, 8.96060616e-02 ]
      - [ 2.71459609e-01, 1.31936058e-01, 1.40552506e-01, 1.95169702e-01,
          7.11801276e-02, 0., 3.58442850e-02, 9.21729654e-02,
          1.98478490e-01, 9.51192155e-02, 9.23727155e-02, 8.26717615e-02,
          0., 0., 0., 1.27078399e-01, 0., 5.71766915e-03, 0., 0.,
          1.16305850e-01, 6.21193275e-02, 8.41445327e-02, 2.18989685e-01,
          7.70713910e-02, 0., 4.86292429e-02, 0., 1.57882482e-01,
          2.27098718e-01, 1.46053866e-01, 2.78594404e-01, 9.43045765e-02,
          0., 0., 6.80768490e-02, 1.85468197e-01, 1.78405300e-01,
          1.42487869e-01, 2.80005872e-01, 0., 0., 0., 0., 7.75931552e-02,
          1.02343969e-01, 9.13100019e-02, 2.08774269e-01, 2.08263740e-01,
          8.82195458e-02, 1.03325807e-01, 7.47923702e-02, 0., 0.,
          2.03493349e-02, 1.75845489e-01, 2.15821117e-01, 2.01966241e-01,
          1.92261457e-01, 1.39006793e-01, 0., 5.64078651e-02, 0.,
          8.69664848e-02 ]
      - [ 2.20557883e-01, 2.52398998e-01, 1.41049787e-01, 1.01303093e-01,
          0., 0., 3.48659940e-02, 6.46092743e-02, 2.86259472e-01,
          9.16095600e-02, 7.52767324e-02, 0., 0., 0., 0., 3.83175127e-02,
          0., 0., 0., 0., 6.95638657e-02, 0., 9.72648412e-02,
          2.53577530e-01, 1.66124195e-01, 0., 0., 0., 1.34253368e-01,
          1.10689223e-01, 1.72651261e-01, 3.02461922e-01, 1.33348733e-01,
          2.00980958e-02, 0., 6.89260587e-02, 1.02223344e-01,
          1.20881900e-01, 1.63446844e-01, 3.00464690e-01, 0., 0., 0., 0.,
          0., 0., 9.97340456e-02, 2.71837264e-01, 2.39032269e-01,
          1.75177053e-01, 0., 0., 0., 0., 0., 0., 2.60752469e-01,
          2.21359104e-01, 1.34800732e-01, 1.08652040e-01, 0., 0.,
          1.93391182e-02, 1.13415495e-01 ]
      - [ 1.91176459e-01, 1.76431805e-01, 1.49094120e-01, 1.51560366e-01,
          0., 0., 0., 2.33183682e-01, 1.00062020e-01, 1.53719515e-01,
          7.43584484e-02, 9.89011005e-02, 0., 0., 0., 1.66544080e-01, 0.,
          0., 0., 0., 0., 8.93182456e-02, 2.07482785e-01, 1.98764399e-01,
          1.27329513e-01, 0., 0., 5.83717674e-02, 8.67545828e-02,
          1.69372380e-01, 2.03548819e-01, 2.61580646e-01, 1.18399769e-01,
          0., 0., 6.03802539e-02, 8.64740536e-02, 1.69762626e-01,
          2.02218831e-01, 2.58042634e-01, 0., 0., 0., 0., 0.,
          8.85647684e-02, 2.09645510e-01, 1.95259690e-01, 1.02549359e-01,
          1.72149286e-01, 0., 9.92014185e-02, 0., 0., 0., 1.86839670e-01,
          1.70022130e-01, 1.82713136e-01, 1.48801938e-01, 1.53219551e-01,
          0., 0., 1.35476794e-02, 2.35539600e-01 ]
      - [ 2.76500374e-01, 1.64858386e-01, 1.73213914e-01, 1.15668185e-01,
          0., 0., 0., 1.58049434e-01, 2.15498254e-01, 1.00919694e-01,
          1.47762567e-01, 1.87164769e-02, 0., 0., 0., 0., 1.92747489e-01,
          0., 0., 0., 0., 1.23390645e-01, 1.29739702e-01, 0.,
          2.68590391e-01, 0., 0., 0., 1.14931323e-01, 1.57434836e-01,
          1.79163009e-01, 2.00863406e-01, 1.00838080e-01, 0., 0., 0.,
          1.15372010e-01, 1.41953468e-01, 2.13334963e-01, 1.33065045e-01,
          2.23674953e-01, 0., 0., 0., 0., 1.47556946e-01, 1.01450518e-01,
          2.43875429e-01, 2.47490048e-01, 1.32259518e-01, 1.23934373e-01,
          0., 0., 0., 0., 1.48695692e-01, 2.28169844e-01, 1.96077615e-01,
          1.44955069e-01, 1.15192033e-01, 0., 0., 0., 8.93666595e-02 ]
      - [ 2.52966106e-01, 1.59786239e-01, 1.64964825e-01, 1.70364723e-01,
          0., 0., 0., 1.12155095e-01, 2.41991878e-01, 8.71164575e-02,
          1.00203983e-01, 4.15907390e-02, 1.23714045e-01, 0.,
          1.38855632e-02, 8.28249902e-02, 1.40946627e-01, 2.62807254e-02,
          0., 0., 1.20433919e-01, 1.33288935e-01, 1.14899278e-01,
          1.92726851e-01, 1.48222476e-01, 3.09760347e-02, 0., 0.,
          1.24324858e-01, 2.06831113e-01, 1.54610038e-01, 2.29827464e-01,
          1.60829097e-01, 4.93606590e-02, 0., 0., 1.24592833e-01,
          1.93054020e-01, 1.54917225e-01, 2.03427345e-01, 1.62284881e-01,
          6.01262506e-03, 0., 6.55987412e-02, 9.59752202e-02,
          1.00470185e-01, 1.53789580e-01, 1.43799022e-01, 2.53623396e-01,
          6.21015355e-02, 9.64545086e-02, 9.35928300e-02, 7.23930821e-02,
          0., 0., 0., 2.63175577e-01, 1.67490244e-01, 1.43645033e-01,
          1.56087831e-01, 1.43988049e-02, 3.01111117e-02, 0.,
          6.79725483e-02 ]
      - [ 1.91323996e-01, 2.18884259e-01, 1.48976371e-01, 1.37152776e-01,
          0., 0., 5.10730930e-02, 1.22848690e-01, 2.08591431e-01,
          1.25306100e-01, 1.22540876e-01, 0., 0., 0., 3.59345376e-02,
          1.88536808e-01, 0., 0., 3.27792205e-02, 8.30906257e-02,
          1.07295014e-01, 0., 1.12651438e-01, 1.73757330e-01,
          1.78331330e-01, 0., 0., 0., 1.36755660e-01, 1.97578579e-01,
          1.31853789e-01, 2.89341211e-01, 1.57186329e-01, 0., 0., 0.,
          1.37621328e-01, 1.94090068e-01, 1.38854206e-01, 2.75288284e-01,
          4.95147780e-02, 0., 0., 0., 1.32399663e-01, 0., 1.10062346e-01,
          1.83308914e-01, 2.04458416e-01, 1.28558204e-01, 1.19162016e-01,
          0., 0., 0., 3.92870158e-02, 1.63628042e-01, 2.42997453e-01,
          1.83874920e-01, 1.40818432e-01, 1.37366191e-01, 4.49222140e-02,
          0., 0., 1.27254337e-01 ]
      - [ 2.55047739e-01, 2.44535074e-01, 1.68205768e-01, 1.78091496e-01,
          0., 6.53242022e-02, 5.91940582e-02, 1.11763872e-01,
          1.05034240e-01, 5.97661398e-02, 5.60046732e-02, 6.91942573e-02,
          0., 0., 0., 1.48095027e-01, 1.48159564e-01, 0., 0., 0.,
          6.70935586e-02, 5.96397631e-02, 8.55020806e-02, 1.16228007e-01,
          9.69521105e-02, 0., 8.35672840e-02, 0., 1.47405177e-01,
          1.82419658e-01, 2.03636527e-01, 3.14225465e-01, 7.05982298e-02,
          9.57417488e-02, 0., 0., 2.05396056e-01, 8.60508159e-02,
          1.89928964e-01, 3.11352044e-01, 1.48953035e-01, 0., 0., 0., 0.,
          6.31491020e-02, 9.42334756e-02, 1.05752915e-01, 6.93418980e-02,
          8.12136009e-02, 6.45465180e-02, 0., 0., 0., 1.34329880e-02,
          4.73037995e-02, 3.02401155e-01, 2.44753182e-01, 1.84291363e-01,
          1.37246907e-01, 0., 0., 7.23919570e-02, 1.32752374e-01 ]
      - [ 2.70834148e-01, 2.16308683e-01, 1.41581208e-01, 1.32975310e-01,
          0., 0., 0., 0., 2.73577452e-01, 1.01317413e-01, 0.,
          8.21740404e-02, 0., 0., 0., 0., 2.26647913e-01, 0., 0., 0.,
          8.21740404e-02, 0., 1.01257414e-01, 2.73533016e-01, 0., 0., 0.,
          0., 1.32913828e-01, 1.41517207e-01, 2.16131940e-01,
          1.48262814e-01, 0., 0., 0., 0., 1.33175790e-01, 1.42044008e-01,
          2.29510978e-01, 1.28357887e-01, 2.26647913e-01, 0., 0., 0.,
          8.22063386e-02, 9.52314511e-02, 5.51727824e-02, 2.70279974e-01,
          2.70279974e-01, 5.51727824e-02, 9.52314511e-02, 8.22063386e-02,
          0., 0., 0., 0., 2.60470778e-01, 2.26150408e-01, 1.47281975e-01,
          1.33145675e-01, 0., 0., 0., 0. ]
      - [ 1.32374182e-01, 2.05343738e-01, 2.80381948e-01, 0., 0., 0., 0.,
          0., 0., 0., 1.34392455e-01, 1.57543153e-01, 1.45252347e-01,
          9.27658826e-02, 1.21459834e-01, 1.45983517e-01, 2.73104459e-01,
          9.31310505e-02, 0., 0., 0., 0., 0., 0., 0., 0., 0., 0.,
          1.02709815e-01, 7.09470063e-02, 1.11169860e-01, 2.58237928e-01,
          1.42117172e-01, 2.13394314e-01, 9.62570682e-02, 1.40355542e-01,
          0., 9.04023200e-02, 1.41870454e-01, 3.10620308e-01,
          2.81210929e-01, 6.71992227e-02, 7.93666542e-02, 0., 0.,
          1.24078721e-01, 0., 0., 0., 4.74111028e-02, 0., 0., 0., 0.,
          6.09066896e-02, 3.13625157e-01, 2.21555844e-01, 2.00029910e-01,
          1.28623277e-01, 1.03107750e-01, 3.73196639e-02, 0., 0.,
          1.68526277e-01 ]
      - [ 6.11985363e-02, 2.59606153e-01, 2.41728023e-01, 0., 0., 0., 0.,
          0., 0., 0., 0., 1.85322404e-01, 1.45068958e-01, 7.84810558e-02,
          1.81827247e-01, 1.83646232e-01, 2.86441177e-01, 8.68399292e-02,
          0., 0., 0., 0., 0., 0., 0., 0., 0., 0., 1.08282015e-01,
          1.33652374e-01, 3.92076448e-02, 2.88475633e-01, 1.04290850e-01,
          1.11125804e-01, 1.58123806e-01, 1.18716091e-01, 5.84325381e-02,
          1.02303386e-01, 1.07114479e-01, 3.26799512e-01, 2.65318185e-01,
          7.11589754e-02, 0., 0., 0., 6.20843545e-02, 8.91135931e-02, 0.,
          9.94815379e-02, 7.61235952e-02, 0., 0., 0., 5.25269471e-02,
          5.83829693e-02, 3.13769847e-01, 2.55625904e-01, 1.80131212e-01,
          9.44496170e-02, 1.55329868e-01, 5.29666133e-02, 0., 0.,
          4.97485958e-02 ]
      - [ 3.48012388e-01, 7.92503580e-02, 1.50380313e-01, 1.84933856e-01,
          0., 0., 0., 0., 0., 0., 0., 0., 1.43463492e-01, 1.12865970e-01,
          1.18168332e-01, 0., 4.00067270e-01, 1.49605811e-01,
          7.97141716e-02, 1.53111905e-01, 0., 0., 0., 0., 0., 0., 0., 0.,
          2.46430531e-01, 1.11188121e-01, 5.35830222e-02, 0., 0.,
          2.20114719e-02, 0., 1.07338794e-01, 1.37714475e-01,
          6.93617389e-02, 1.05863355e-01, 1.90906778e-01, 3.40612143e-01,
          0., 0., 0., 0., 0., 0., 0., 0., 0., 0., 0., 9.22238678e-02,
          1.72140226e-01, 1.03083201e-01, 1.46912634e-01, 3.67108703e-01,
          7.25607350e-02, 5.92796616e-02, 2.02683851e-01, 1.60888419e-01,
          0., 0., 0. ]
      - [ 2.46009201e-01, 1.00321174e-01, 0., 1.55829087e-01, 0., 0., 0.,
          0., 0., 0., 0., 0., 0., 1.54600695e-01, 6.84530362e-02,
          1.09160379e-01, 1.91410422e-01, 6.54064566e-02, 1.90708861e-01,
          0., 0., 0., 0., 0., 0., 0., 0., 0., 1.66436136e-01,
          1.20628700e-01, 5.80674298e-02, 2.53775001e-01, 1.93062305e-01,
          1.06564559e-01, 1.04362093e-01, 1.24617934e-01, 1.26811594e-01,
          1.01843365e-01, 1.30285352e-01, 2.59395123e-01, 2.89416075e-01,
          1.12783112e-01, 0., 0., 0., 0., 1.15885682e-01, 1.20113470e-01,
          1.62515104e-01, 0., 0., 9.23040658e-02, 0., 1.57115191e-01,
          1.39865205e-01, 2.31617376e-01, 3.14515918e-01, 1.45956159e-01,
          9.53506753e-02, 1.58652663e-01, 2.04660133e-01, 0., 0.,
          1.94983423e-01 ]
      - [ 2.59403884e-01, 1.40483901e-01, 2.22421497e-01, 1.12032674e-01,
          0., 0., 0., 0., 0., 0., 0., 0., 8.59529749e-02, 1.52631342e-01,
          1.60756305e-01, 1.75495967e-01, 4.24923897e-01, 3.68268639e-02,
          0., 0., 0., 0., 0., 0., 0., 0., 0., 0., 1.07069448e-01,
          1.48267344e-01, 1.06349714e-01, 6.92990348e-02, 3.63759026e-02,
          5.53221479e-02, 1.68576509e-01, 0., 1.61288932e-01,
          1.68326035e-01, 1.52322471e-01, 6.95118755e-02, 3.93435866e-01,
          3.25124077e-02, 0., 0., 0., 0., 2.07500756e-02, 3.30610052e-02,
          0., 1.69423651e-02, 0., 0., 0., 0., 7.33625935e-03,
          1.02278367e-02, 4.31108207e-01, 1.26748309e-01, 8.60465914e-02,
          1.54743254e-01, 1.60868734e-01, 0., 0., 0. ]
      - [ 1.86911181e-01, 1.33023590e-01, 3.11958641e-01, 8.48440006e-02,
          0., 0., 0., 0., 0., 0., 0., 0., 1.09525852e-01, 1.44823298e-01,
          1.80293381e-01, 2.08768755e-01, 3.40543717e-01, 2.48692613e-02,
          0., 0., 0., 0., 0., 0., 0., 0., 0., 0., 2.39821538e-01,
          6.72341511e-02, 1.04979657e-01, 2.60308981e-01, 0., 0., 0., 0.,
          1.57474697e-01, 2.04281107e-01, 4.26741168e-02, 2.63610214e-01,
          3.18216860e-01, 2.00509913e-02, 0., 0., 0., 0., 0., 0., 0., 0.,
          0., 0., 0., 0., 8.34335014e-02, 2.13740170e-01, 3.58188421e-01,
          1.50177717e-01, 0., 1.82714701e-01, 0., 0., 0., 0. ]
      - [ 2.43759334e-01, 1.94225565e-01, 2.07851127e-01, 9.27363560e-02,
          0., 0., 0., 0., 0., 0., 0., 0., 9.89088565e-02, 1.20621167e-01,
          1.73927650e-01, 1.37841895e-01, 3.86637598e-01, 1.94096670e-01,
          0., 0., 0., 0., 0., 0., 0., 0., 0., 0., 1.89943045e-01,
          1.35016322e-01, 2.06843819e-02, 1.06436484e-01, 1.78576559e-02,
          1.91074133e-01, 0., 1.32286504e-01, 0., 8.80436301e-02,
          1.28207639e-01, 1.56201005e-01, 3.87835681e-01, 5.97106665e-03,
          0., 0., 0., 0., 1.19421333e-02, 1.78576559e-02, 0., 0., 0., 0.,
          0., 0., 6.56595975e-02, 2.24646896e-01, 3.71137202e-01,
          1.32066488e-01, 0., 1.86384529e-01, 1.60359427e-01, 0., 0., 0. ]
      - [ 1.56879410e-01, 6.93784356e-02, 7.87794143e-02, 1.12106897e-01,
          0., 0., 0., 0., 0., 0., 0., 0., 0., 1.43232405e-01,
          1.04998007e-01, 8.56344998e-02, 2.21183077e-01, 7.11684301e-02,
          1.27886295e-01, 1.64140761e-01, 0., 0., 0., 0., 0., 0., 0., 0.,
          2.07990259e-01, 6.68772608e-02, 6.79020584e-02, 9.15336832e-02,
          1.75553948e-01, 5.39187640e-02, 9.41786394e-02, 1.88177124e-01,
          9.98373628e-02, 0., 1.41001225e-01, 2.91768968e-01,
          2.43663490e-01, 7.99109787e-02, 6.66244626e-02, 5.77988438e-02,
          0., 0., 1.18474193e-01, 2.13213056e-01, 2.46405333e-01, 0.,
          1.16951384e-01, 0., 1.71955541e-01, 2.10819930e-01,
          3.30183655e-02, 2.33886734e-01, 2.74792433e-01, 1.04432829e-01,
          1.09712593e-01, 1.54387712e-01, 2.74941027e-01, 0., 0.,
          1.63774565e-01 ]
      - [ 2.29771808e-01, 1.76936209e-01, 2.03057423e-01, 2.33179390e-01,
          0., 0., 0., 0., 0., 0., 0., 0., 0., 1.29309192e-01,
          1.91141561e-01, 1.76673174e-01, 3.41592371e-01, 6.02347590e-02,
          0., 0., 0., 0., 0., 0., 0., 0., 0., 0., 2.78159857e-01,
          6.22865930e-02, 1.12510033e-01, 2.27950945e-01, 0., 0., 0., 0.,
          1.99207872e-01, 1.91134006e-01, 1.18290335e-01, 2.25456789e-01,
          2.96190858e-01, 7.92545900e-02, 0., 0., 0., 0., 0., 0., 0., 0.,
          0., 0., 0., 0., 3.42514105e-02, 2.24079430e-01, 3.33829671e-01,
          1.44993946e-01, 1.32107660e-01, 1.82442829e-01, 0., 0., 0., 0. ]
      - [ 1.71844468e-01, 4.38762382e-02, 8.90925974e-02, 0., 0., 0., 0.,
          0., 0., 0., 0., 0., 0., 0., 4.38762382e-02, 2.04980373e-01,
          2.34979972e-01, 6.30006567e-02, 1.71418905e-01, 1.25429869e-01,
          0., 0., 0., 0., 0., 0., 0., 0., 1.81313410e-01, 1.03857875e-01,
          9.97915715e-02, 8.26764107e-02, 1.73748448e-01, 3.64821889e-02,
          1.20072737e-01, 1.22950345e-01, 1.01118825e-01, 4.48857695e-02,
          1.78150401e-01, 2.38697365e-01, 2.73747861e-01, 1.44767806e-01,
          0., 0., 0., 0., 1.28895745e-01, 2.06614077e-01, 2.10269496e-01,
          1.27594560e-01, 0., 0., 1.62466452e-01, 1.92089573e-01,
          1.26617610e-01, 1.98108718e-01, 2.96963006e-01, 1.27100393e-01,
          6.83091506e-02, 1.99708462e-01, 2.54719317e-01, 0., 0.,
          2.04601943e-01 ]
      - [ 3.82754266e-01, 1.19204916e-01, 1.35515124e-01, 9.77552831e-02,
          0., 0., 0., 0., 0., 0., 0., 0., 0., 6.35466278e-02,
          1.18765384e-01, 1.03775479e-01, 3.78415287e-01, 1.94766700e-01,
          1.48269653e-01, 0., 0., 0., 0., 0., 0., 0., 0., 0.,
          2.46145263e-01, 9.00783017e-02, 9.06340629e-02, 8.09396505e-02,
          0., 0., 0., 7.99123645e-02, 1.01738006e-01, 6.83267638e-02,
          1.70983486e-02, 1.43190444e-01, 4.12307411e-01, 1.20903580e-02,
          0., 0., 0., 0., 0., 0., 0., 0., 0., 0., 0., 1.39136404e-01,
          1.97480127e-01, 1.03271961e-01, 3.83969396e-01, 3.60183120e-02,
          7.68121332e-02, 2.16094583e-01, 1.14798643e-01, 0., 0., 0. ]
      - [ 1.59825042e-01, 1.19879447e-01, 4.13875729e-02, 2.09431306e-01,
          0., 0., 0., 0., 0., 0., 0., 1.70366853e-01, 0., 1.15369335e-01,
          1.16440557e-01, 1.07605241e-01, 1.65599495e-01, 1.54329866e-01,
          1.51690826e-01, 1.74850345e-01, 0., 0., 0., 0., 0., 0., 0., 0.,
          2.34054908e-01, 1.28100365e-01, 1.17910311e-01, 1.73351914e-01,
          1.69569954e-01, 0., 6.93080276e-02, 1.80288523e-01,
          8.98772106e-02, 1.12237975e-01, 9.36269462e-02, 2.58132964e-01,
          2.28493169e-01, 1.17038593e-01, 2.21214239e-02, 5.42856269e-02,
          0., 0., 9.17209089e-02, 1.81881085e-01, 1.13613434e-01, 0., 0.,
          7.56254420e-02, 1.75436109e-01, 1.50894850e-01, 1.53866202e-01,
          1.94697723e-01, 2.70419121e-01, 1.30297333e-01, 0.,
          1.69799089e-01, 2.60758430e-01, 0., 0., 1.82784081e-01 ]
      - [ 1.97858155e-01, 1.78337410e-01, 2.66970009e-01, 0., 0., 0., 0.,
          0., 0., 0., 0., 1.49673358e-01, 1.54775143e-01, 0.,
          1.64595380e-01, 9.51097459e-02, 3.93126190e-01, 1.62806083e-02,
          0., 0., 0., 0., 0., 0., 0., 0., 0., 0., 1.04851708e-01,
          1.37856290e-01, 1.09472767e-01, 4.66253422e-02, 1.81445092e-01,
          3.21038365e-02, 0., 1.62631422e-01, 1.86205581e-01,
          1.02853715e-01, 1.20138198e-01, 1.09420285e-01, 3.94970357e-01,
          4.97774221e-02, 0., 0., 0., 6.35834336e-02, 9.21009928e-02, 0.,
          1.62367314e-01, 4.41038199e-02, 0., 0., 2.63025872e-02, 0., 0.,
          2.13567078e-01, 3.68177533e-01, 1.05058111e-01, 1.31292701e-01,
          1.86561570e-01, 0., 0., 0., 0. ]
      - [ 2.99563497e-01, 1.34659544e-01, 9.99852493e-02, 1.94999903e-01,
          5.41955642e-02, 0., 0., 0., 0., 0., 0., 1.57624975e-01,
          7.13451281e-02, 4.73267287e-02, 1.47992328e-01, 6.87951371e-02,
          3.23619038e-01, 1.59620702e-01, 1.54839188e-01, 1.83651775e-01,
          5.29573336e-02, 0., 0., 0., 0., 0., 0., 0., 3.09430987e-01, 0.,
          1.16471186e-01, 7.93735161e-02, 2.92636361e-02, 0., 0.,
          1.38383314e-01, 6.41262904e-02, 9.46879089e-02, 8.21867213e-02,
          1.32006899e-01, 3.35867077e-01, 3.60114090e-02, 0., 0., 0.,
          4.91368212e-02, 0., 0., 0., 0., 0., 0., 2.03446597e-01,
          1.81436792e-01, 1.42374560e-01, 5.05737253e-02, 3.19545895e-01,
          1.03505217e-01, 1.26126021e-01, 1.42779350e-01, 2.36627966e-01,
          0., 0., 0. ]
      - [ 1.38141066e-01, 1.12857886e-01, 3.33732106e-02, 2.00325400e-01,
          0., 0., 0., 0., 0., 0., 0., 1.31661341e-01, 1.25516191e-01,
          7.25025833e-02, 1.11045673e-01, 1.18482456e-01, 1.35789633e-01,
          1.73736483e-01, 1.51126742e-01, 1.74400061e-01, 0., 0., 0., 0.,
          0., 0., 0., 0., 2.33075932e-01, 1.36144593e-01, 9.95951295e-02,
          1.80986747e-01, 1.75924405e-01, 0., 8.94581228e-02,
          1.78637862e-01, 6.66775256e-02, 1.11184575e-01, 1.29144326e-01,
          2.23443761e-01, 2.74462461e-01, 3.24611329e-02, 0., 0.,
          5.43236695e-02, 0., 9.87181962e-02, 1.86577559e-01,
          1.68596268e-01, 0., 6.54715300e-02, 5.05303629e-02,
          1.96319029e-01, 1.69558510e-01, 9.23834294e-02, 2.30095491e-01,
          2.37843126e-01, 1.27478033e-01, 1.07694410e-01, 1.69723213e-01,
          2.58719414e-01, 0., 0., 1.49819940e-01 ]
      - [ 2.71017849e-01, 7.82840177e-02, 8.85901377e-02, 0., 0., 0., 0.,
          0., 0., 0., 0., 0., 0., 0., 7.11862817e-02, 1.68982536e-01,
          2.63155311e-01, 1.40418574e-01, 9.30053890e-02, 1.11715801e-01,
          0., 0., 0., 0., 0., 0., 0., 0., 1.67283744e-01, 9.30053890e-02,
          1.04509242e-01, 1.65120736e-01, 1.35969728e-01, 6.37985244e-02,
          1.52665928e-01, 8.13380927e-02, 8.99617225e-02, 7.30748698e-02,
          6.08500354e-02, 3.12370032e-01, 2.90755272e-01, 6.11853264e-02,
          0., 0., 0., 0., 0., 2.07946345e-01, 2.06662416e-01, 0., 0., 0.,
          1.13935165e-01, 1.53459504e-01, 1.29266039e-01, 2.72993952e-01,
          2.99466431e-01, 7.40655959e-02, 1.16515324e-01, 1.55927405e-01,
          2.35079542e-01, 0., 0., 1.91106603e-01 ]
      - [ 1.65903643e-01, 1.18441448e-01, 1.25141263e-01, 1.84544846e-01,
          0., 0., 0., 0., 0., 0., 0., 0., 1.69075102e-01, 1.28755927e-01,
          1.17601939e-01, 1.25834048e-01, 1.83405474e-01, 1.62628189e-01,
          1.76394597e-01, 1.34570703e-01, 0., 0., 0., 0., 0., 0., 0., 0.,
          2.39088267e-01, 1.09766163e-01, 9.63660777e-02, 1.68996215e-01,
          1.68188110e-01, 1.96871720e-02, 1.29278362e-01, 1.68362409e-01,
          1.01458535e-01, 1.21421486e-01, 1.08379297e-01, 3.10432523e-01,
          1.93836272e-01, 3.93964462e-02, 0., 0., 0., 1.02741912e-01,
          1.08311161e-01, 1.00649349e-01, 1.58126473e-01, 0.,
          4.53124195e-02, 0., 1.32843077e-01, 1.77369595e-01,
          1.07302338e-01, 2.71869838e-01, 1.84526503e-01, 1.39948577e-01,
          1.18038334e-01, 1.65894046e-01, 2.49241099e-01, 0., 0.,
          1.42493397e-01 ]
      - [ 2.77512521e-01, 1.25449881e-01, 2.67005712e-01, 1.05908729e-01,
          0., 0., 0., 0., 0., 0., 0., 0., 9.19367447e-02, 1.18003987e-01,
          1.66491330e-01, 1.30290002e-01, 4.05975103e-01, 3.84653434e-02,
          0., 0., 0., 0., 0., 0., 0., 0., 0., 0., 1.84872195e-01,
          1.33647397e-01, 1.12595573e-01, 6.79353550e-02, 0.,
          1.28046572e-02, 0., 1.56513482e-01, 2.37964422e-01,
          1.45022929e-01, 1.14973165e-01, 6.79353550e-02, 3.76176953e-01,
          3.09016686e-02, 0., 0., 0., 0., 0., 0., 0., 0., 0., 0., 0., 0.,
          0., 0., 4.11771268e-01, 1.19624294e-01, 1.33702382e-01,
          1.01877809e-01, 2.17490628e-01, 0., 0., 0. ]
      - [ 1.35777667e-01, 1.81756660e-01, 2.45403364e-01, 0., 0., 0., 0.,
          0., 0., 0., 6.91995993e-02, 1.78212613e-01, 7.85992220e-02,
          1.55945703e-01, 1.03893802e-02, 1.64244756e-01, 2.89712816e-01,
          3.04444879e-02, 0., 0., 0., 0., 0., 0., 0., 0., 0., 0., 0.,
          7.62376338e-02, 1.05823703e-01, 5.90317287e-02, 1.30842641e-01,
          2.22026706e-01, 1.60047501e-01, 1.47687778e-01, 9.39522982e-02,
          6.45779744e-02, 1.48590147e-01, 4.18011285e-02, 4.18953836e-01,
          1.78544484e-02, 0., 4.08188291e-02, 0., 8.86749700e-02,
          5.61328717e-02, 1.19482718e-01, 2.83741593e-01, 0., 0., 0., 0.,
          0., 0., 0., 4.15152818e-01, 8.97868723e-02, 1.24131426e-01,
          1.77273616e-01, 1.00940280e-01, 1.08767517e-01, 0.,
          7.46993944e-02 ]
      - [ 8.77729729e-02, 1.36739016e-01, 2.14156255e-01, 1.04068868e-01,
          0., 0., 0., 0., 0., 3.78201306e-02, 7.25529343e-02,
          1.94097400e-01, 7.89643899e-02, 9.99684855e-02, 8.52035582e-02,
          8.85789022e-02, 1.60573110e-01, 4.45479713e-02, 0., 0., 0., 0.,
          0., 0., 0., 0., 0., 0., 0., 0., 5.62024638e-02, 8.14866722e-02,
          2.31153056e-01, 2.04411536e-01, 2.17867345e-01, 9.27936509e-02,
          9.03592408e-02, 0., 1.24685720e-01, 1.11661576e-01,
          4.17728543e-01, 3.88295539e-02, 0., 0., 1.06906056e-01, 0.,
          1.54584020e-01, 1.14423506e-01, 3.83427799e-01, 0., 0., 0., 0.,
          0., 0., 0., 4.22795743e-01, 1.23222284e-01, 8.50242302e-02,
          1.47343278e-01, 0., 9.38631594e-02, 1.14164516e-01, 0. ]
      - [ 1.64513841e-01, 2.18662083e-01, 3.24231148e-01, 0., 0., 0., 0.,
          0., 0., 0., 1.50203303e-01, 1.56030729e-01, 1.48501486e-01,
          1.38077006e-01, 4.82803062e-02, 2.11718395e-01, 3.35115612e-01,
          1.02576643e-01, 0., 0., 0., 0., 0., 0., 0., 0., 0., 0.,
          1.53292447e-01, 8.26586783e-02, 1.39892340e-01, 2.34651327e-01,
          0., 0., 1.71732381e-01, 0., 9.53615606e-02, 1.25284746e-01,
          9.43134725e-02, 2.64974296e-01, 3.09222311e-01, 9.25706699e-02,
          6.29927814e-02, 5.33871613e-02, 0., 0., 0., 0., 0., 0., 0., 0.,
          0., 0., 1.83302555e-02, 2.50643969e-01, 3.43446046e-01,
          1.46056205e-01, 0., 1.00938946e-01, 0., 0., 0., 0. ]
      - [ 1.78487524e-01, 1.04590371e-01, 2.48975977e-01, 0., 0., 0., 0.,
          0., 0., 0., 1.73167065e-01, 7.91845545e-02, 1.02897607e-01,
          1.29410371e-01, 7.96702430e-02, 1.16458774e-01, 1.71377093e-01,
          5.58393598e-02, 0., 0., 0., 0., 0., 0., 0., 0., 0., 0., 0., 0.,
          9.91906300e-02, 1.03018761e-01, 1.88438043e-01, 1.58841744e-01,
          2.43167102e-01, 0., 1.32445037e-01, 1.03254363e-01,
          1.60019547e-01, 1.82313547e-01, 3.78789216e-01, 1.08440861e-01,
          0., 1.01537921e-01, 1.26026273e-01, 0., 1.13714695e-01,
          1.51549429e-01, 3.37692648e-01, 0., 0., 0., 0., 0., 0., 0.,
          3.92915964e-01, 1.51648432e-01, 1.26297563e-01, 0.,
          7.05670491e-02, 1.03492729e-01, 0., 1.07074670e-01 ]
      - [ 1.56660140e-01, 1.22547746e-01, 1.72266096e-01, 1.55741557e-01,
          0., 0., 0., 0., 0., 0., 0., 1.34425029e-01, 1.29139215e-01,
          1.43159091e-01, 5.41005619e-02, 1.28379598e-01, 1.85559943e-01,
          1.42097950e-01, 1.69012889e-01, 1.89047694e-01, 0., 0., 0., 0.,
          0., 0., 0., 0., 2.58467823e-01, 1.16646044e-01, 9.52309519e-02,
          1.63478598e-01, 1.72066182e-01, 0., 0., 1.99300572e-01,
          8.93058330e-02, 1.26075432e-01, 9.94428769e-02, 2.37879008e-01,
          2.65011579e-01, 3.13391536e-02, 0., 0., 0., 1.05454065e-01,
          2.64320504e-02, 1.37806460e-01, 1.31147414e-01, 0.,
          4.29410711e-02, 0., 1.89076647e-01, 1.16884649e-01,
          1.40799895e-01, 2.56986558e-01, 2.01905608e-01, 1.21747300e-01,
          7.27553889e-02, 1.93351105e-01, 2.42852584e-01, 0., 0.,
          1.53171405e-01 ]
      - [ 8.76250193e-02, 1.45931035e-01, 1.78703189e-01, 1.48081586e-01,
          0., 0., 0., 0., 0., 7.06991181e-02, 1.40970618e-01,
          1.50909260e-01, 9.27618966e-02, 0., 1.27318412e-01,
          8.88626128e-02, 1.67189896e-01, 4.50962037e-02, 0., 0., 0., 0.,
          0., 0., 0., 0., 0., 0., 0., 0., 5.96881174e-02, 8.59618336e-02,
          2.49269456e-01, 4.85957004e-02, 2.49631837e-01, 1.50791451e-01,
          5.75047880e-02, 9.79195759e-02, 1.10449031e-01, 1.43533036e-01,
          3.95113736e-01, 3.93074155e-02, 0., 0., 9.82722491e-02,
          8.90052021e-02, 1.23748988e-01, 1.05896175e-01, 3.85846615e-01,
          0., 0., 0., 0., 0., 0., 0., 4.27031726e-01, 1.22924112e-01,
          8.37361366e-02, 1.50199279e-01, 0., 9.72172394e-02,
          1.16137736e-01, 0. ]
      - [ 5.62186874e-02, 2.72869498e-01, 2.28816390e-01, 0.,
          5.88069372e-02, 0., 0., 0., 0., 0., 1.60296455e-01,
          1.33166999e-01, 1.15649089e-01, 1.48967803e-01, 1.27592877e-01,
          1.79659531e-01, 2.44693369e-01, 9.89883691e-02, 0., 0., 0., 0.,
          0., 0., 0., 0., 0., 0., 0., 1.17453039e-01, 1.44866988e-01,
          2.61972278e-01, 1.51460379e-01, 1.05846524e-01, 1.73716962e-01,
          1.29956037e-01, 1.05818510e-01, 1.18535161e-01, 6.95133582e-02,
          3.04793358e-01, 2.87445873e-01, 1.33202493e-01, 0.,
          7.83609524e-02, 8.85102451e-02, 0., 0., 1.17672898e-01, 0., 0.,
          4.78866957e-02, 0., 7.23109245e-02, 0., 7.00054914e-02,
          2.48868957e-01, 2.41126105e-01, 2.14506075e-01, 1.06691599e-01,
          1.57901883e-01, 0., 0., 1.36827439e-01, 0. ]
      - [ 1.38648376e-01, 3.64828333e-02, 1.94443911e-01, 0., 0., 0., 0.,
          0., 0., 0., 0., 0., 8.84499475e-02, 1.23789392e-01,
          1.01573959e-01, 1.30223095e-01, 2.11355999e-01, 7.16316327e-02,
          1.27484277e-01, 1.56350195e-01, 0., 0., 0., 0., 0., 0., 0., 0.,
          1.95434988e-01, 7.98197314e-02, 8.23211372e-02, 1.62973791e-01,
          1.66331619e-01, 4.12007719e-02, 1.32921353e-01, 1.65166065e-01,
          1.11306086e-01, 1.15410268e-01, 1.08310699e-01, 2.05437094e-01,
          3.24636877e-01, 7.51809999e-02, 3.16478349e-02, 0., 0.,
          2.83906329e-02, 1.62556648e-01, 1.65685639e-01, 2.27460474e-01,
          1.03921004e-01, 0., 0., 1.05548322e-01, 1.57490253e-01,
          1.59148201e-01, 2.69639760e-01, 2.50477523e-01, 1.02127843e-01,
          7.23646507e-02, 1.81912944e-01, 2.59320349e-01, 0., 0.,
          1.63919881e-01 ]
      - [ 1.41112566e-01, 1.16598196e-01, 0., 2.10588798e-01, 0., 0., 0.,
          0., 0., 0., 0., 1.39851123e-01, 1.35182321e-01, 8.81533250e-02,
          5.69279715e-02, 2.04441577e-01, 2.40669250e-01, 1.43405139e-01,
          1.64729521e-01, 1.83313310e-01, 0., 0., 0., 0., 0., 0., 0., 0.,
          2.59519130e-01, 1.18584491e-01, 1.05564006e-01, 1.00432791e-01,
          1.60395935e-01, 0., 0., 2.00384840e-01, 7.06527829e-02,
          1.04429521e-01, 1.36089578e-01, 2.94915825e-01, 1.72535062e-01,
          9.33989137e-02, 0., 0., 0., 7.01106265e-02, 1.18057325e-01,
          1.08963028e-01, 1.47923842e-01, 3.91645245e-02, 0., 0.,
          1.91715479e-01, 1.07627407e-01, 1.51610881e-01, 2.60825485e-01,
          2.05465198e-01, 1.13161877e-01, 9.27465409e-02, 1.94990575e-01,
          2.43445665e-01, 0., 0., 9.72746983e-02 ]
      - [ 8.69325772e-02, 1.38135418e-01, 2.39366695e-01, 0., 0., 0., 0.,
          0., 0., 0., 1.60159588e-01, 1.47127733e-01, 8.94587860e-02, 0.,
          1.24144420e-01, 8.81603956e-02, 1.62674874e-01, 4.47398424e-02,
          0., 0., 0., 0., 0., 0., 0., 0., 0., 0., 0., 0., 5.64445332e-02,
          8.18376467e-02, 2.66431063e-01, 1.64013982e-01, 2.25153878e-01,
          1.16758563e-01, 8.35052580e-02, 1.02956250e-01, 6.05548397e-02,
          1.58218741e-01, 4.02634233e-01, 3.89967971e-02, 0., 0.,
          1.01450160e-01, 0., 1.51845738e-01, 0., 3.83900613e-01, 0., 0.,
          0., 0., 0., 0., 0., 4.24082071e-01, 1.23753019e-01,
          8.53904411e-02, 1.47977903e-01, 0., 9.42674354e-02,
          1.14656240e-01, 0. ]
      - [ 3.43407094e-01, 1.22769810e-01, 7.33227804e-02, 1.05859429e-01,
          0., 0., 0., 0., 0., 0., 0., 0., 0., 0., 2.78245788e-02,
          2.29304790e-01, 4.12983537e-01, 1.56154841e-01, 9.89638269e-02,
          1.11156844e-01, 0., 0., 0., 0., 0., 0., 0., 0., 2.28245899e-01,
          1.24605432e-01, 1.40895229e-02, 6.84245378e-02, 0., 0., 0.,
          2.83405632e-02, 1.05529092e-01, 1.40304387e-01, 2.89903060e-02,
          1.91724613e-01, 3.69281471e-01, 0., 0., 0., 0., 0., 0., 0., 0.,
          0., 0., 0., 1.56034514e-01, 1.20803684e-01, 1.25768900e-01, 0.,
          4.17914569e-01, 9.49345380e-02, 0., 1.86594754e-01,
          1.69220850e-01, 0., 0., 0. ]
      - [ 1.34856060e-01, 1.63157627e-01, 2.48178676e-01, 0., 0., 0., 0.,
          0., 0., 0., 1.63733050e-01, 0., 1.36759147e-01, 1.33616880e-01,
          6.29443601e-02, 1.71028361e-01, 3.14971000e-01, 3.43421586e-02,
          0., 0., 0., 0., 0., 0., 0., 0., 0., 0., 0., 8.41107741e-02,
          1.14665687e-01, 6.71734363e-02, 1.39669642e-01, 1.79024130e-01,
          2.01764554e-01, 7.05833212e-02, 1.06654897e-01, 1.45211533e-01,
          7.24150017e-02, 1.33011475e-01, 3.97306800e-01, 3.27605791e-02,
          0., 0., 0., 7.28551522e-02, 9.15660262e-02, 1.20127216e-01,
          2.78322786e-01, 0., 0., 0., 0., 0., 0., 0., 4.28346992e-01,
          1.21912785e-01, 8.92708898e-02, 1.54724091e-01, 1.06877007e-01,
          1.09790951e-01, 3.18439230e-02, 0. ]
      - [ 2.78087646e-01, 9.36830789e-02, 1.24687955e-01, 2.56116480e-01,
          0., 0., 0., 0., 0., 0., 0., 1.54638350e-01, 1.50971547e-01,
          9.35562029e-02, 1.24999426e-01, 1.20368384e-01, 3.15214485e-01,
          1.39733851e-01, 1.47133157e-01, 2.17032149e-01, 0., 0., 0., 0.,
          0., 0., 0., 0., 3.22499096e-01, 0., 1.08470045e-01,
          7.28954896e-02, 0., 0., 0., 0., 1.51858553e-01, 1.01662256e-01,
          1.21444382e-01, 1.42096043e-01, 3.10460657e-01, 4.72157001e-02,
          0., 3.25603485e-02, 0., 0., 0., 0., 0., 0., 0., 0.,
          1.85483485e-01, 1.64203897e-01, 1.27894670e-01, 5.81811816e-02,
          3.12551081e-01, 9.85199064e-02, 1.19815104e-01, 9.11015049e-02,
          2.43483007e-01, 0., 0., 0. ]
      - [ 2.41845340e-01, 2.07272992e-01, 2.17033952e-01, 0., 0., 0., 0.,
          0., 0., 0., 0., 0., 9.96945426e-02, 0., 1.80407971e-01,
          1.44003138e-01, 3.93639147e-01, 1.97151244e-01, 0., 0., 0., 0.,
          0., 0., 0., 0., 0., 0., 1.93526477e-01, 1.37565047e-01,
          1.06846720e-01, 3.63542661e-02, 2.93798447e-02, 9.19751674e-02,
          1.59081444e-01, 5.53832650e-02, 1.00916199e-01, 4.87303473e-02,
          1.39321223e-01, 1.56435907e-01, 3.84954393e-01, 0., 0., 0., 0.,
          0., 1.71908699e-02, 2.30817478e-02, 0., 0., 0., 0., 0., 0.,
          1.96359843e-01, 1.45588055e-01, 3.77224416e-01, 1.33485347e-01,
          0., 1.88726008e-01, 1.63228303e-01, 0., 0., 0. ]
      - [ 4.23487902e-01, 1.46511525e-01, 1.09379135e-01, 0., 0., 0., 0.,
          0., 0., 0., 0., 0., 0., 0., 0., 0., 4.39731091e-01,
          1.40816510e-01, 0., 1.05284899e-01, 0., 0., 0., 0., 0., 0., 0.,
          0., 2.24081829e-01, 0., 9.95723084e-02, 0., 0., 0., 0., 0.,
          1.15257747e-01, 0., 1.47167116e-01, 1.08914077e-01,
          4.10191536e-01, 0., 0., 0., 0., 0., 0., 0., 0., 0., 0., 0., 0.,
          1.30314678e-01, 1.27331689e-01, 1.92488566e-01, 3.93738925e-01,
          1.64974760e-02, 1.06570311e-01, 1.51035860e-01, 1.67459995e-01,
          0., 0., 0. ]
      - [ 8.38890895e-02, 1.52428806e-01, 2.52905130e-01, 0., 0., 0., 0.,
          0., 0., 0., 1.47210181e-01, 1.73937187e-01, 9.54117849e-02, 0.,
          1.27834812e-01, 8.54616985e-02, 1.67275339e-01, 4.37690355e-02,
          0., 0., 0., 0., 0., 0., 0., 0., 0., 0., 0., 0., 5.79315126e-02,
          8.42359513e-02, 2.06073031e-01, 1.82901487e-01, 2.39370689e-01,
          1.02730185e-01, 9.75000039e-02, 0., 1.44379765e-01,
          9.01359469e-02, 4.17858213e-01, 3.81506085e-02, 0., 0.,
          1.02003001e-01, 1.34583429e-01, 0., 1.47332221e-01,
          3.71083826e-01, 0., 0., 0., 0., 0., 0., 0., 4.13200527e-01,
          1.18828818e-01, 8.12718049e-02, 1.45992190e-01, 0.,
          9.43561569e-02, 1.13279566e-01, 0. ]
      - [ 2.92879373e-01, 1.11431815e-01, 1.19158916e-01, 2.04758734e-01,
          8.03199857e-02, 0., 0., 0., 0., 0., 0., 1.34590060e-01,
          9.91172045e-02, 1.11677147e-01, 1.40721545e-01, 1.19443290e-01,
          3.28246027e-01, 1.57628134e-01, 1.27757221e-01, 2.12480381e-01,
          0., 0., 0., 0., 0., 0., 0., 0., 2.98918098e-01, 8.27393979e-02,
          1.12548374e-01, 7.08072186e-02, 0., 0., 0., 6.57618791e-02,
          1.01176873e-01, 1.29465908e-01, 7.35920593e-02, 1.26688063e-01,
          3.40667188e-01, 3.28668766e-02, 4.75762300e-02, 0., 0., 0., 0.,
          0., 0., 0., 0., 0., 1.96034148e-01, 1.41729519e-01,
          1.61709428e-01, 3.53738479e-02, 3.24065030e-01, 1.29938632e-01,
          5.43536842e-02, 1.68085784e-01, 2.13528231e-01, 0., 0., 0. ]
      - [ 1.61932394e-01, 1.24753267e-01, 9.10546556e-02, 2.30295420e-01,
          0., 0., 0., 0., 0., 0., 0., 1.07047245e-01, 1.58406362e-01,
          1.07911058e-01, 9.99761075e-02, 2.05157474e-01, 2.38376394e-01,
          1.36672840e-01, 1.34956345e-01, 2.05401778e-01, 0., 0., 0., 0.,
          0., 0., 0., 0., 2.82969028e-01, 5.59655055e-02, 9.14698392e-02,
          1.99015781e-01, 1.11079775e-01, 6.24823058e-03, 0.,
          1.94520697e-01, 1.28225386e-01, 8.95535573e-02, 9.55200195e-02,
          2.46976107e-01, 2.30586931e-01, 1.21136874e-01, 0., 0., 0.,
          3.86918262e-02, 6.28603250e-02, 1.12419635e-01, 4.26399186e-02,
          5.37186526e-02, 0., 0., 2.01262206e-01, 9.57591832e-02,
          1.42360210e-01, 2.19000578e-01, 1.98712677e-01, 1.82770222e-01,
          7.59687200e-02, 1.31689653e-01, 2.74021089e-01, 0.,
          3.14269364e-02, 6.40655980e-02 ]
      - [ 1.96755767e-01, 1.43417612e-01, 2.67984688e-01, 1.06052086e-01,
          0., 0., 0., 0., 0., 5.78388311e-02, 1.11533262e-01,
          1.86641872e-01, 9.56419259e-02, 9.15598571e-02, 9.16111916e-02,
          1.30048245e-01, 3.23881388e-01, 3.52518931e-02, 0., 0., 0., 0.,
          0., 0., 0., 0., 6.25499934e-02, 0., 7.24695325e-02,
          8.66181180e-02, 1.31015748e-01, 7.73278549e-02, 1.05456755e-01,
          7.20163509e-02, 2.34360829e-01, 1.54100120e-01, 1.42603517e-01,
          1.22603565e-01, 7.94244036e-02, 1.31964996e-01, 3.73462319e-01,
          3.50219198e-02, 0., 0., 0., 6.47567213e-02, 9.57514420e-02,
          3.73960547e-02, 2.39578918e-01, 1.96942724e-02, 0., 0., 0., 0.,
          0., 0., 4.06864882e-01, 1.16248332e-01, 1.30494803e-01,
          9.93035734e-02, 2.12100670e-01, 0., 0., 0. ]
      - [ 1.65774092e-01, 2.54133850e-01, 2.12601900e-01, 0., 0., 0., 0.,
          0., 0., 0., 0., 0., 0., 1.54374167e-01, 1.54718474e-01,
          1.92128927e-01, 2.96433747e-01, 1.97065130e-01, 9.01600271e-02,
          0., 0., 0., 0., 0., 0., 0., 0., 0., 2.19320238e-01,
          8.51295590e-02, 1.62524194e-01, 2.16246381e-01, 0.,
          8.65890160e-02, 1.23756394e-01, 9.21648145e-02, 9.71087962e-02,
          1.31907061e-01, 1.55773073e-01, 2.08924219e-01, 3.51013392e-01,
          1.65583231e-02, 0., 0., 0., 0., 0., 0., 0., 0., 0., 0., 0.,
          1.18873091e-02, 9.84513611e-02, 3.04957837e-01, 2.77479798e-01,
          1.02481097e-01, 1.29734144e-01, 1.82411924e-01, 1.57222226e-01,
          0., 0., 0. ]
      - [ 1.69629425e-01, 1.50908545e-01, 2.73673356e-01, 0., 0., 0., 0.,
          0., 0., 0., 0., 0., 0., 1.59549043e-01, 1.79012731e-01,
          1.98645592e-01, 3.71235549e-01, 1.77053228e-01, 0., 0., 0., 0.,
          0., 0., 0., 0., 0., 0., 1.95491210e-01, 1.39450222e-01,
          8.54395702e-02, 1.82193622e-01, 0., 4.05527391e-02,
          1.47775874e-01, 1.36348426e-01, 0., 1.34051338e-01,
          6.21395335e-02, 3.02869141e-01, 2.75664359e-01, 5.98642193e-02,
          0., 2.97588017e-02, 0., 0., 0., 0., 0., 0., 0., 0., 0., 0.,
          1.00791030e-01, 3.63576204e-01, 2.10840017e-01, 1.48902252e-01,
          1.12220429e-01, 1.57983407e-01, 1.63261116e-01, 0., 0., 0. ]
      - [ 1.52848586e-01, 2.28971973e-01, 3.05394709e-01, 9.05437171e-02,
          0., 0., 0., 0., 0., 4.04321067e-02, 1.46948829e-01,
          1.49869680e-01, 1.19886525e-01, 1.27615273e-01, 1.71694130e-01,
          1.58053324e-01, 3.30414593e-01, 8.87806416e-02, 0., 0., 0., 0.,
          0., 0., 0., 0., 4.77418080e-02, 6.30290434e-02, 1.76984653e-01,
          1.38547942e-01, 6.20305948e-02, 2.32539594e-01, 0.,
          3.76135670e-02, 9.04304981e-02, 1.94549143e-01, 1.38036087e-01,
          4.11190465e-02, 1.21438511e-01, 2.55199194e-01, 2.97205120e-01,
          6.39293566e-02, 0., 0., 0., 0., 0., 0., 4.71484289e-03,
          3.96469422e-03, 0., 0., 0., 0., 2.74682082e-02, 2.19126686e-01,
          3.27715129e-01, 1.32857904e-01, 1.24608196e-01, 1.74095094e-01,
          0., 0., 3.96469422e-03, 0. ]
      - [ 2.05931976e-01, 6.87643290e-02, 1.26628190e-01, 1.13526918e-01,
          1.18958987e-01, 0., 0., 0., 0., 0., 0., 0., 1.14718303e-01,
          9.32809711e-02, 1.54936552e-01, 2.01795474e-01, 2.90952384e-01,
          1.73714489e-01, 8.44968632e-02, 0., 0., 0., 0., 0., 0., 0., 0.,
          0., 1.62168205e-01, 1.25054926e-01, 4.34000529e-02,
          2.02463910e-01, 1.37428537e-01, 6.26425818e-03, 0.,
          1.62375376e-01, 1.10466205e-01, 1.45289898e-01, 1.42327294e-01,
          2.14887485e-01, 3.26115459e-01, 8.03973898e-02, 0., 0., 0., 0.,
          8.70748758e-02, 1.92154542e-01, 1.52909547e-01, 0., 0., 0., 0.,
          1.72006145e-01, 1.21671073e-01, 2.28876561e-01, 3.30993026e-01,
          3.28500494e-02, 1.39881253e-01, 1.53744355e-01, 1.68233410e-01,
          0., 0., 1.08456865e-01 ]
      - [ 9.80238318e-02, 1.16074041e-01, 1.24036141e-01, 2.06344664e-01,
          1.33989587e-01, 0., 0., 0., 0., 3.94275039e-02, 0.,
          1.67023316e-01, 1.86834946e-01, 1.21160083e-01, 7.24125728e-02,
          1.11514896e-01, 1.11142874e-01, 3.25725943e-01, 0., 0., 0.,
          7.48284161e-02, 4.53912579e-02, 9.35903862e-02, 0.,
          8.41197148e-02, 0., 0., 2.55331993e-01, 8.92252550e-02,
          9.49697495e-02, 1.10168047e-01, 1.15594946e-01, 1.87071726e-01,
          4.01323102e-02, 0., 1.82332739e-01, 1.49422228e-01,
          2.11889639e-01, 1.32747188e-01, 1.89243704e-01, 1.42417148e-01,
          1.89656932e-02, 0., 0., 1.48247004e-01, 1.20491013e-01,
          6.63599968e-02, 2.70953942e-02, 8.77623037e-02, 0., 0.,
          2.62130648e-01, 1.41293257e-01, 9.64825228e-02, 5.60066141e-02,
          1.08482875e-01, 3.08742523e-01, 5.19780777e-02, 2.18331560e-01,
          1.88663110e-01, 0., 0., 0. ]
      - [ 1.28131926e-01, 1.27312079e-01, 2.08119690e-01, 1.26516670e-01,
          0., 0., 1.24689592e-02, 0., 0., 1.76289558e-01, 1.14074409e-01,
          1.46861672e-01, 1.08507492e-01, 0., 9.56218317e-02,
          5.83946407e-02, 1.75317928e-01, 1.85030818e-01, 1.99735954e-01,
          0., 8.15055445e-02, 5.91089204e-02, 8.57915878e-02,
          6.64008856e-02, 0., 1.01523764e-01, 0., 0., 2.38305330e-01, 0.,
          1.04409754e-01, 7.40033537e-02, 1.42311499e-01, 1.26055136e-01,
          1.27964467e-01, 6.02269731e-02, 1.75263807e-01, 1.49357021e-01,
          1.66492686e-01, 1.74837619e-01, 1.69338197e-01, 1.25534788e-01,
          0., 1.02545030e-01, 1.31177261e-01, 0., 1.02121323e-01,
          1.64872840e-01, 0., 1.21666513e-01, 9.16974694e-02, 0.,
          3.00351948e-01, 1.09037071e-01, 3.38613689e-02, 8.88462365e-02,
          0., 1.94842309e-01, 2.53753483e-01, 1.30385712e-01,
          2.77001739e-01, 0., 0., 0. ]
      - [ 6.43127188e-02, 1.34264320e-01, 1.07089728e-01, 2.00392991e-01,
          3.93295214e-02, 0., 0., 0., 0., 0., 6.58681467e-02,
          1.44067287e-01, 1.70037925e-01, 5.53934798e-02, 7.69204348e-02,
          9.05200988e-02, 1.99066699e-02, 2.57236063e-01, 1.40713915e-01,
          0., 9.22789425e-02, 8.68561268e-02, 0., 0., 0., 0., 0., 0.,
          2.42429212e-01, 6.89514726e-02, 1.03972510e-01, 8.65167677e-02,
          1.53805807e-01, 2.51091700e-02, 6.07817993e-02, 0.,
          1.31415173e-01, 2.18361199e-01, 1.72144458e-01, 2.12880567e-01,
          2.12506145e-01, 9.66095552e-02, 0., 0., 0., 1.66027933e-01,
          1.34411499e-01, 2.27471098e-01, 9.77085009e-02, 1.46037489e-01,
          0., 1.12378169e-02, 2.90851921e-01, 1.36402041e-01,
          1.18756555e-01, 7.65100867e-02, 7.42992014e-02, 2.85148680e-01,
          8.23665708e-02, 2.26233721e-01, 2.24777937e-01, 0., 0., 0. ]
      - [ 1.31357864e-01, 1.37054905e-01, 1.97514832e-01, 1.45453274e-01,
          1.27567083e-01, 0., 0., 0., 0., 1.14277169e-01, 1.33633539e-01,
          1.00663453e-01, 1.66108370e-01, 1.27094626e-01, 9.25122797e-02,
          7.24763572e-02, 1.28110856e-01, 2.26752624e-01, 2.29948699e-01,
          0., 0., 0., 0., 0., 0., 0., 0., 0., 2.53696591e-01,
          7.23694786e-02, 1.23899765e-01, 0., 1.25290081e-01,
          1.56918332e-01, 1.00257427e-01, 0., 2.19148234e-01,
          2.06482843e-01, 1.53199747e-01, 1.56398848e-01, 1.56682462e-01,
          1.43154904e-01, 0., 1.22314624e-01, 7.86135718e-02,
          1.03373334e-01, 0., 8.12691525e-02, 0., 0., 8.49584416e-02, 0.,
          2.61028767e-01, 6.90724850e-02, 1.36065125e-01, 8.85297358e-02,
          1.28056780e-01, 1.70613304e-01, 2.65734673e-01, 1.22427747e-01,
          2.70610631e-01, 0., 0., 0. ]
      - [ 1.36567861e-01, 1.60191506e-01, 1.37905806e-01, 1.42725289e-01,
          4.65820469e-02, 0., 0., 1.74369887e-01, 1.08832151e-01,
          1.35809749e-01, 8.44507292e-02, 1.30151361e-01, 8.17150772e-02,
          1.06424063e-01, 8.77543762e-02, 1.51770905e-01, 1.36702359e-01,
          2.50997037e-01, 9.75362957e-02, 0., 1.70618027e-01,
          1.10507287e-01, 0., 0., 0., 1.27267152e-01, 6.22478202e-02, 0.,
          2.63579488e-01, 7.21972361e-02, 9.68907475e-02, 6.16997220e-02,
          1.43237576e-01, 2.02743292e-01, 0., 6.36804178e-02,
          1.51927307e-01, 1.48987263e-01, 1.67941123e-01, 1.21116474e-01,
          1.59583464e-01, 1.90780103e-01, 0., 0., 0., 1.67579457e-01,
          1.32209510e-01, 0., 8.37391242e-02, 1.36358544e-01,
          1.19779959e-01, 1.81607008e-01, 1.31749377e-01, 8.49026442e-02,
          8.73273909e-02, 3.11472211e-02, 1.79908738e-01, 1.75307706e-01,
          2.23872527e-01, 8.66309479e-02, 2.28196606e-01, 0., 0., 0. ]
      - [ 1.24247976e-01, 1.83761433e-01, 1.54813215e-01, 1.24250934e-01,
          1.27305225e-01, 0., 2.04497594e-02, 0., 0., 1.78478017e-01,
          1.57427594e-01, 1.43368348e-01, 0., 7.53705874e-02,
          1.05006121e-01, 7.23230913e-02, 1.33028403e-01, 2.36780137e-01,
          1.43023670e-01, 0., 1.51782304e-01, 5.33727147e-02,
          1.05151571e-01, 0., 0., 1.20109409e-01, 9.13541019e-02,
          5.23082260e-03, 2.43399099e-01, 1.18481249e-01, 2.26700325e-02,
          1.50565624e-01, 1.16542466e-01, 1.18507467e-01, 6.89757839e-02,
          1.14050470e-02, 1.42734468e-01, 1.96810231e-01, 1.47263631e-01,
          1.83876738e-01, 1.46184027e-01, 1.35552004e-01, 0., 0.,
          5.42391911e-02, 1.47536382e-01, 1.29249200e-01, 1.65262640e-01,
          0., 0., 1.23084068e-01, 6.41568527e-02, 2.78534234e-01,
          9.68466997e-02, 1.04834408e-01, 0., 8.83618742e-02,
          2.11289614e-01, 2.05157936e-01, 8.51991102e-02, 2.65714377e-01,
          0., 0., 0. ]
      - [ 8.23395699e-02, 1.78727701e-01, 1.06689245e-01, 1.19142033e-01,
          8.28538090e-02, 0., 1.50635615e-01, 7.77795091e-02,
          6.87990263e-02, 1.23527803e-01, 1.14849873e-01, 7.61093944e-02,
          1.44383788e-01, 6.39213696e-02, 1.16355389e-01, 1.14654720e-01,
          1.49296701e-01, 2.85072088e-01, 5.06234318e-02, 0.,
          1.74101606e-01, 8.08314383e-02, 5.93492836e-02, 0., 0.,
          1.62237644e-01, 5.23993000e-02, 4.60793898e-02, 2.45549068e-01,
          1.13436423e-01, 9.41520259e-02, 5.28725833e-02, 9.12020653e-02,
          1.98258445e-01, 8.35352316e-02, 7.05839917e-02, 1.39549226e-01,
          1.19386859e-01, 1.66351318e-01, 1.62636787e-01, 2.10070401e-01,
          4.48718593e-02, 0., 2.88093518e-02, 0., 1.36953160e-01,
          1.06745511e-01, 1.46359354e-01, 6.69789761e-02, 1.33362517e-01,
          1.20829925e-01, 1.42634124e-01, 1.97691053e-01, 5.44691980e-02,
          1.02685302e-01, 9.56612825e-02, 1.61850467e-01, 1.79316983e-01,
          2.28904352e-01, 1.36041716e-01, 2.29800150e-01, 0., 0., 0. ]
      - [ 1.52749792e-01, 1.70495883e-01, 8.51339102e-02, 1.32217795e-01,
          0., 0., 1.23560250e-01, 1.02773719e-01, 1.61849216e-01,
          1.30747408e-01, 5.50769717e-02, 1.17256925e-01, 8.52145478e-02,
          6.15138039e-02, 1.59364015e-01, 8.49760696e-02, 1.04824439e-01,
          2.32221261e-01, 7.52592683e-02, 6.28566816e-02, 1.10460393e-01,
          1.23476699e-01, 0., 0., 1.14881836e-01, 1.07276626e-01,
          4.72021364e-02, 0., 2.16285214e-01, 5.24551645e-02,
          9.28103328e-02, 7.38206804e-02, 1.24387205e-01, 2.44597629e-01,
          6.11805916e-02, 6.23293146e-02, 9.84806940e-02, 1.86373681e-01,
          1.45181164e-01, 1.45846844e-01, 1.84343234e-01, 1.99703529e-01,
          0., 9.84806940e-02, 0., 8.00012872e-02, 1.14444599e-01,
          1.42497078e-01, 0., 1.46831647e-01, 2.08916843e-01,
          1.42551109e-01, 1.30823240e-01, 4.62546796e-02, 8.94628540e-02,
          9.41089615e-02, 1.58795863e-01, 2.09684387e-01, 1.62897766e-01,
          1.94858730e-01, 2.08672941e-01, 5.49038276e-02, 0.,
          7.63694420e-02 ]
      - [ 5.94366230e-02, 1.46708533e-01, 1.53879896e-01, 2.39370584e-01,
          0., 0., 0., 0., 0., 4.60697934e-02, 1.38548821e-01,
          1.70763433e-01, 1.52384371e-01, 8.02036747e-02, 1.27452001e-01,
          1.24755301e-01, 6.34843707e-02, 2.02330187e-01, 2.04948336e-01,
          1.59117103e-01, 0., 0., 0., 0., 0., 3.46491598e-02, 0.,
          2.15141118e-01, 1.44544750e-01, 9.06172395e-02, 1.04014449e-01,
          1.74169809e-01, 1.22834742e-01, 1.22949131e-01, 0.,
          1.24376871e-01, 2.19172463e-01, 1.35212451e-01, 1.35213539e-01,
          1.72682986e-01, 2.27807537e-01, 6.24442697e-02, 0., 0.,
          7.28941187e-02, 9.05776843e-02, 9.57007408e-02, 1.19871549e-01,
          0., 1.08803518e-01, 4.35585864e-02, 0., 2.34940633e-01,
          7.09986165e-02, 1.16821103e-01, 1.36574551e-01, 1.46191791e-01,
          2.34945774e-01, 1.78171307e-01, 1.46942750e-01, 2.47628242e-01,
          3.94091569e-02, 0., 0. ]
      - [ 5.94107993e-02, 1.20265730e-01, 1.41573995e-01, 1.95345014e-01,
          0., 0., 0., 0., 0., 1.99820492e-02, 0., 1.40363500e-01,
          1.69981286e-01, 1.17896155e-01, 6.23170100e-02, 8.72385725e-02,
          1.05822660e-01, 3.05027843e-01, 5.43463342e-02, 0.,
          8.97392407e-02, 0., 0., 0., 0., 0., 0., 0., 2.22332835e-01,
          1.23815626e-01, 1.03601038e-01, 0., 2.35745698e-01, 0., 0., 0.,
          2.18064755e-01, 1.17701262e-01, 2.31805354e-01, 1.52551100e-01,
          1.98927656e-01, 1.44209608e-01, 0., 0., 2.73609255e-02,
          1.85084552e-01, 1.38308793e-01, 0., 0., 1.73679531e-01,
          1.05439059e-01, 1.09008603e-01, 2.35351026e-01, 6.03611767e-02,
          1.33374602e-01, 7.83163011e-02, 1.91250667e-01, 2.86364615e-01,
          7.36848637e-02, 1.63343370e-01, 2.48415798e-01, 0., 0.,
          4.07348052e-02 ]
      - [ 1.16725527e-01, 7.53962100e-02, 1.32259503e-01, 2.41544113e-01,
          0., 0., 0., 0., 0., 4.56470959e-02, 1.32685453e-01,
          1.75072879e-01, 1.43169686e-01, 3.96824069e-02, 1.01610743e-01,
          8.36123824e-02, 8.21244568e-02, 1.72664583e-01, 2.09332034e-01,
          1.44682199e-01, 0., 4.46788073e-02, 4.36828509e-02, 0., 0., 0.,
          0., 1.77872732e-01, 1.84303612e-01, 8.45672637e-02,
          1.14102721e-01, 8.11343640e-02, 1.35033578e-01, 1.80977359e-01,
          0., 0., 2.23978177e-01, 1.66235015e-01, 1.55657992e-01,
          1.71887457e-01, 1.26424462e-01, 1.87830761e-01, 0., 0.,
          1.22779168e-01, 1.35757029e-01, 1.31728739e-01, 6.56249076e-02,
          4.93245274e-02, 1.62642017e-01, 0., 4.95197996e-03,
          2.48767614e-01, 1.53433427e-01, 4.17575426e-02, 1.23385102e-01,
          1.52790964e-01, 2.23222286e-01, 1.94751203e-01, 1.48776665e-01,
          2.49473020e-01, 4.22512554e-02, 0., 0. ]
      - [ 1.90351054e-01, 1.29350424e-01, 1.24503501e-01, 1.91878214e-01,
          4.68740836e-02, 0., 0., 1.18138820e-01, 9.29559693e-02,
          1.36753485e-01, 1.10156320e-01, 8.00369009e-02, 8.05464536e-02,
          1.45306602e-01, 8.86021927e-02, 1.83521643e-01, 1.06106065e-01,
          2.74178863e-01, 0., 0., 1.40186921e-01, 8.36470649e-02, 0.,
          8.23707432e-02, 0., 1.42442822e-01, 0., 0., 2.44513944e-01, 0.,
          1.06657855e-01, 2.00588956e-01, 1.92901820e-01, 5.59243411e-02,
          0., 6.55357540e-02, 1.88724175e-01, 1.03902064e-01,
          1.83052167e-01, 2.29187816e-01, 8.16787705e-02, 1.89932257e-01,
          0., 0., 0., 2.07453594e-02, 8.27053040e-02, 1.07114308e-01,
          9.28041488e-02, 4.84282859e-02, 9.62771773e-02, 1.26605645e-01,
          1.98161319e-01, 5.68286180e-02, 1.13753475e-01, 1.44312143e-01,
          1.32806256e-01, 1.68995306e-01, 2.35247523e-01, 1.51613116e-01,
          1.90726951e-01, 0., 0., 0. ]
      - [ 1.61869928e-01, 1.24001898e-01, 1.35111541e-01, 1.49096623e-01,
          0., 0., 1.43188998e-01, 7.61916041e-02, 1.41295537e-01,
          8.90227109e-02, 1.15623675e-01, 9.48676169e-02, 1.43983170e-01,
          4.99255434e-02, 1.17534578e-01, 1.24645159e-01, 1.00660123e-01,
          2.60345131e-01, 6.40580729e-02, 8.10584873e-02, 1.88281700e-01,
          2.77535338e-02, 0., 0., 0., 1.63126677e-01, 8.34658071e-02, 0.,
          2.34436274e-01, 9.24240723e-02, 8.96658152e-02, 9.52691883e-02,
          1.52415887e-01, 2.22098827e-01, 0., 0., 1.21520013e-01,
          1.78220823e-01, 1.28858328e-01, 2.17531949e-01, 1.53468743e-01,
          1.32831261e-01, 8.71199295e-02, 0., 9.89580452e-02, 0.,
          1.31208673e-01, 1.30633011e-01, 0., 1.16385780e-01,
          1.70101807e-01, 1.42387152e-01, 1.55448094e-01, 7.02074766e-02,
          1.31606936e-01, 1.31287009e-01, 4.90382947e-02, 2.48408169e-01,
          1.30504400e-01, 1.59383446e-01, 1.90666214e-01, 6.36312589e-02,
          2.38364451e-02, 0. ]
      - [ 1.42250910e-01, 1.55178070e-01, 1.27283394e-01, 1.96772873e-01,
          0., 5.14136702e-02, 0., 0., 1.37358367e-01, 1.47745490e-01,
          1.15042403e-01, 1.44432232e-01, 7.54163489e-02, 1.00394063e-01,
          5.25038764e-02, 1.30452946e-01, 2.10916251e-01, 2.84298092e-01,
          0., 0., 0., 6.64254576e-02, 1.25203311e-01, 0., 0.,
          1.51252285e-01, 3.65362912e-02, 0., 2.02629462e-01,
          1.05183296e-01, 1.44728035e-01, 1.07993521e-01, 9.24896523e-02,
          1.99975759e-01, 8.48107412e-02, 5.73233776e-02, 1.11454889e-01,
          1.98176518e-01, 1.29903808e-01, 2.18842357e-01, 1.29700124e-01,
          1.52208909e-01, 0., 0., 6.56041354e-02, 1.59256801e-01,
          1.12132743e-01, 1.10538714e-01, 0., 1.01718694e-01, 0.,
          7.80167580e-02, 2.35612646e-01, 0., 1.12466112e-01,
          8.37374553e-02, 9.76162311e-03, 3.12892020e-01, 1.21579543e-01,
          2.02208176e-01, 1.35040820e-01, 0., 0., 0. ]
      - [ 1.27317607e-01, 1.17513433e-01, 1.81891918e-01, 1.37950838e-01,
          1.27230704e-01, 0., 0., 0., 0., 1.69608667e-01, 1.27918422e-01,
          8.38523284e-02, 1.43101349e-01, 4.44610007e-02, 1.02350831e-01,
          1.40177950e-01, 7.77414888e-02, 3.28597963e-01, 5.67406192e-02,
          0., 8.41510594e-02, 5.99489212e-02, 4.56568301e-02,
          7.43695199e-02, 0., 0., 7.74862915e-02, 0., 2.66480416e-01,
          5.25292531e-02, 9.11310762e-02, 7.54587203e-02, 1.22433543e-01,
          1.88600555e-01, 0., 0., 1.23603560e-01, 1.95489615e-01,
          2.13866219e-01, 1.47825986e-01, 1.43694431e-01, 1.80856854e-01,
          0., 0., 0., 1.64716244e-01, 1.24044865e-01, 7.72171542e-02,
          4.04911041e-02, 9.98185351e-02, 1.34747460e-01, 1.25162691e-01,
          1.89453721e-01, 1.05570309e-01, 5.82946371e-03, 1.73132136e-01,
          1.00418672e-01, 2.57849067e-01, 1.52040750e-01, 8.14185366e-02,
          2.55655736e-01, 0., 0., 0. ]
      - [ 7.91139975e-02, 1.14645235e-01, 4.51937355e-02, 2.27407560e-01,
          1.37082845e-01, 0., 0., 0., 0., 4.08614390e-02, 1.32625923e-01,
          1.89728230e-01, 1.03333794e-01, 7.91058913e-02, 1.35399804e-01,
          0., 1.44885361e-01, 2.17993096e-01, 1.94879770e-01,
          5.84030822e-02, 0., 0., 5.43951914e-02, 1.07632048e-01, 0.,
          9.58377272e-02, 5.58615513e-02, 1.26392439e-01, 1.85114026e-01,
          1.20359808e-01, 6.27418458e-02, 1.24244928e-01, 2.37107024e-01,
          4.67944928e-02, 0., 0., 1.60278514e-01, 1.62603348e-01,
          1.99975997e-01, 1.88330457e-01, 1.53411940e-01, 1.46794081e-01,
          0., 0., 1.02984324e-01, 3.55672613e-02, 1.10245310e-01,
          1.83988318e-01, 0., 1.64908782e-01, 0., 7.30680972e-02,
          2.38213032e-01, 1.42120019e-01, 4.59666066e-02, 1.01576865e-01,
          1.62578057e-02, 3.07823390e-01, 1.13244511e-01, 2.14454412e-01,
          1.78804338e-01, 0., 0., 0. ]
      - [ 1.22186385e-01, 1.62002593e-01, 9.08921957e-02, 1.30817771e-01,
          5.97386584e-02, 0., 6.95271939e-02, 1.36498392e-01,
          1.15475923e-01, 1.50448233e-01, 0., 7.64266625e-02,
          8.60483423e-02, 1.21860407e-01, 9.98937264e-02, 1.03172407e-01,
          1.38098255e-01, 2.36638248e-01, 1.17698148e-01, 0.,
          1.35199413e-01, 1.04004689e-01, 0., 0., 8.71068016e-02,
          1.21304467e-01, 1.04578823e-01, 0., 2.05245808e-01,
          1.00836664e-01, 9.56181288e-02, 7.35128745e-02, 1.30070105e-01,
          1.13539129e-01, 1.35223940e-01, 4.99428920e-02, 1.25005901e-01,
          1.64863601e-01, 1.74142882e-01, 9.32845846e-02, 2.08083495e-01,
          1.66815341e-01, 0., 9.08685103e-02, 0., 0., 1.53146237e-01,
          2.07194686e-01, 0., 1.92297891e-01, 1.54499844e-01,
          1.78868249e-01, 1.36273414e-01, 7.63922185e-02, 8.68628398e-02,
          1.52914912e-01, 8.48028064e-02, 2.46091083e-01, 1.95425436e-01,
          1.46749660e-01, 2.15774134e-01, 5.68027236e-02, 0., 0. ]
      - [ 1.62725821e-01, 1.43428266e-01, 1.73064694e-01, 2.33153820e-01,
          0., 0., 0., 0., 0., 1.21380612e-02, 1.80415556e-01,
          1.81549326e-01, 1.23100400e-01, 9.18345153e-02, 6.94253445e-02,
          1.37179494e-01, 8.32638890e-02, 2.14823663e-01, 1.94904760e-01,
          1.64583400e-01, 0., 0., 9.17551201e-03, 0., 1.09115839e-02,
          1.12376614e-02, 3.84542271e-02, 2.12178364e-01, 1.72185868e-01,
          1.14036441e-01, 7.74309933e-02, 1.70933664e-01, 7.89150000e-02,
          1.29776433e-01, 5.26215471e-02, 0., 1.87257245e-01,
          1.94195315e-01, 1.30609974e-01, 1.89602464e-01, 1.83677495e-01,
          1.21584475e-01, 0., 0., 0., 1.04019888e-01, 1.06396191e-01,
          7.91472569e-02, 7.58096054e-02, 4.90911342e-02, 0., 0.,
          2.35539451e-01, 5.26215471e-02, 1.01976790e-01, 1.23951085e-01,
          1.87983155e-01, 2.19403014e-01, 1.63375363e-01, 1.89799696e-01,
          2.14463741e-01, 0., 0., 0. ]
      - [ 1.51950166e-01, 1.86333790e-01, 1.58375427e-01, 1.31851941e-01,
          5.92831038e-02, 9.18034464e-02, 7.63084665e-02, 1.65814817e-01,
          1.71512634e-01, 7.29563683e-02, 0., 0., 5.35825975e-02,
          6.38384148e-02, 2.72497293e-02, 1.65189713e-01, 3.48943733e-02,
          2.27388933e-01, 1.51128471e-01, 6.64263815e-02, 8.21102411e-02,
          0., 8.76423940e-02, 0., 5.45161553e-02, 5.21772355e-02,
          7.88150951e-02, 1.07215412e-01, 2.69814700e-01, 1.67669490e-01,
          1.13701902e-01, 6.61239401e-02, 1.35388702e-01, 4.68817875e-02,
          8.46230313e-02, 7.35216960e-02, 1.59062847e-01, 1.68411851e-01,
          1.50874689e-01, 1.68415532e-01, 1.71119779e-01, 1.32662833e-01,
          0., 0., 0., 0., 1.45597771e-01, 2.10011527e-01, 1.05248809e-01,
          9.28926989e-02, 1.18119285e-01, 1.87620506e-01, 1.41685575e-01,
          9.95924696e-02, 7.74574503e-02, 1.35219827e-01, 1.30482391e-01,
          2.15263352e-01, 1.98143139e-01, 1.64283007e-01, 2.12045908e-01,
          0., 2.73649041e-02, 0. ]
      - [ 8.69335309e-02, 1.02156624e-01, 7.79329613e-02, 2.07028732e-01,
          1.46320015e-01, 4.83691432e-02, 0., 0., 0., 3.02627217e-02,
          1.26303211e-01, 1.79662764e-01, 1.42036721e-01, 1.03830218e-01,
          9.94558185e-02, 0., 0., 2.54670531e-01, 2.05984250e-01, 0.,
          4.40493524e-02, 0., 0., 1.11372240e-01, 0., 9.25111473e-02, 0.,
          1.55987322e-01, 1.69069842e-01, 1.12586558e-01, 8.42021629e-02,
          1.22344814e-01, 2.22616807e-01, 1.46057904e-01, 0.,
          7.70184547e-02, 1.73111796e-01, 1.44302934e-01, 1.82956487e-01,
          1.54421598e-01, 1.53909802e-01, 1.86764106e-01, 0., 0., 0.,
          1.41989172e-01, 1.40451074e-01, 7.01831579e-02, 0.,
          1.63848922e-01, 0., 7.13517591e-02, 2.58329540e-01,
          9.17606279e-02, 1.00857012e-01, 7.25773200e-02, 1.26256524e-02,
          2.99806893e-01, 1.44796625e-01, 2.09965304e-01, 1.88541338e-01,
          0., 0., 0. ]
      - [ 1.83328658e-01, 1.43914491e-01, 1.10549726e-01, 2.16824934e-01,
          0., 0., 0., 0., 0., 1.17319189e-01, 1.90581053e-01,
          8.76149312e-02, 9.61943120e-02, 7.59838820e-02, 1.07019536e-01,
          8.89545605e-02, 2.18281180e-01, 2.79100776e-01, 0., 0., 0., 0.,
          4.09725048e-02, 5.69116510e-02, 4.65731397e-02, 0., 0., 0.,
          2.20750958e-01, 1.23900473e-01, 9.15309116e-02, 1.48189187e-01,
          1.81484938e-01, 1.40064195e-01, 0., 0., 1.50889978e-01,
          2.01560885e-01, 1.67622685e-01, 1.96976766e-01, 2.03034997e-01,
          7.54339397e-02, 0., 0., 1.36900201e-01, 0., 9.49394256e-02,
          1.26477927e-01, 0., 1.08453631e-01, 0., 0., 1.91549331e-01,
          1.66986406e-01, 9.94774550e-02, 9.99377444e-02, 2.07072958e-01,
          2.95409173e-01, 0., 1.64319649e-01, 2.00897470e-01, 0., 0., 0. ]
      - [ 5.55772036e-02, 1.03220530e-01, 1.37857229e-01, 2.32914910e-01,
          1.28575802e-01, 0., 0., 0., 0., 0., 1.22002169e-01,
          1.43685877e-01, 1.89797491e-01, 1.12206623e-01, 1.10380262e-01,
          1.44178793e-01, 1.13293380e-01, 2.49574974e-01, 1.72206789e-01,
          0., 7.34206885e-02, 0., 4.55866605e-02, 7.58000836e-02,
          5.42119816e-02, 5.78796193e-02, 8.39089677e-02, 1.27988294e-01,
          2.09581211e-01, 1.14877380e-01, 5.64558133e-02, 1.68284595e-01,
          1.48840085e-01, 9.81314629e-02, 0., 0., 2.15339020e-01,
          1.45878911e-01, 1.38210654e-01, 2.29809865e-01, 1.46987334e-01,
          1.13907196e-01, 0., 0., 0., 5.23602180e-02, 1.60009593e-01,
          1.15701579e-01, 0., 5.55780977e-02, 8.55085626e-02, 0.,
          2.51466274e-01, 1.40097588e-01, 1.02747962e-01, 1.92688890e-02,
          1.05030589e-01, 2.00880453e-01, 2.46262267e-01, 2.15360686e-01,
          1.81002691e-01, 0., 0., 0. ]
      - [ 9.57795978e-02, 1.99797481e-01, 1.55601859e-01, 1.16280861e-01,
          1.24646381e-01, 0., 0., 0., 1.14203736e-01, 1.44154042e-01,
          1.43109739e-01, 1.16453901e-01, 1.00701891e-01, 1.12224445e-01,
          9.95192155e-02, 5.20257987e-02, 1.19533576e-01, 2.98287004e-01,
          0., 0., 6.78602830e-02, 9.20920148e-02, 8.08711797e-02,
          5.08973598e-02, 0., 1.23324327e-01, 5.04353829e-02, 0.,
          2.22363785e-01, 5.42661101e-02, 1.27689183e-01, 1.19744211e-01,
          1.18323512e-01, 2.08709538e-01, 3.32633033e-02, 0.,
          1.69903785e-01, 1.63132221e-01, 1.41217008e-01, 2.34162271e-01,
          1.58138841e-01, 1.22059792e-01, 0., 0., 0., 1.22119240e-01,
          1.52681917e-01, 1.28054574e-01, 5.97717278e-02, 1.40590474e-01,
          0., 7.55542666e-02, 2.34060600e-01, 1.12111412e-01,
          9.94608402e-02, 6.28016740e-02, 1.41908452e-01, 2.65350133e-01,
          1.30960882e-01, 2.22870842e-01, 1.30778432e-01, 0., 0., 0. ]
      - [ 5.09595163e-02, 9.92645249e-02, 1.30923092e-01, 1.96291462e-01,
          1.46085814e-01, 5.78925349e-02, 0., 0., 0., 4.07561585e-02,
          6.61522970e-02, 1.98816836e-01, 1.50647715e-01, 1.15718491e-01,
          1.01979777e-01, 5.18233590e-02, 1.04609996e-01, 3.13498646e-01,
          0., 6.34766519e-02, 6.58432692e-02, 8.71120542e-02, 0.,
          9.69879925e-02, 0., 1.15012072e-01, 6.44963831e-02,
          5.18671125e-02, 2.43467435e-01, 9.78932530e-02, 5.95313497e-02,
          7.78668076e-02, 1.28429100e-01, 2.02087671e-01, 5.18648773e-02,
          0., 1.66335911e-01, 1.63510486e-01, 2.12753505e-01,
          1.26463175e-01, 2.01818734e-01, 1.16300844e-01, 3.41982394e-02,
          0., 0., 1.52265266e-01, 1.55259997e-01, 9.43996757e-02,
          6.43060356e-02, 1.33056462e-01, 0., 7.15532824e-02,
          2.54092991e-01, 1.05641536e-01, 3.98757942e-02, 9.95743051e-02,
          0., 3.06976855e-01, 9.14443433e-02, 2.10914850e-01,
          1.75325975e-01, 0., 0., 0. ]
      - [ 1.33641571e-01, 1.60209835e-01, 1.00653142e-01, 2.71435410e-01,
          0., 0., 0., 0., 0., 2.36789063e-02, 1.15606673e-01,
          1.53825253e-01, 1.53267071e-01, 1.11194447e-01, 1.21066101e-01,
          2.10855603e-01, 8.87804106e-02, 1.87883079e-01, 2.31835723e-01,
          1.54007018e-01, 0., 0., 0., 0., 0., 0., 0., 0., 2.91446507e-01,
          6.94077834e-02, 1.33995980e-01, 1.78491339e-01, 4.37643789e-02,
          8.84473249e-02, 0., 0., 2.60601729e-01, 1.25639588e-01,
          1.83317170e-01, 2.02922314e-01, 1.93632066e-01, 9.00143832e-02,
          0., 0., 0., 7.82558173e-02, 3.80100608e-02, 7.96362311e-02, 0.,
          4.76090461e-02, 0., 0., 1.22201197e-01, 1.22692600e-01,
          1.51159629e-01, 1.23206429e-01, 2.01065183e-01, 1.78090245e-01,
          1.26515985e-01, 1.26720071e-01, 2.78009981e-01, 1.75131001e-02,
          8.46034940e-03, 0. ]
      - [ 6.14664294e-02, 2.22555220e-01, 1.19483799e-01, 2.39159644e-01,
          0., 0., 0., 0., 0., 1.67767793e-01, 1.25424787e-01,
          1.28900871e-01, 1.72082305e-01, 1.05699547e-01, 8.08555707e-02,
          7.40745440e-02, 8.03382099e-02, 2.94564188e-01, 1.59287453e-01,
          0., 0., 0., 1.87363382e-02, 0., 2.22813878e-02, 1.36326896e-02,
          0., 0., 2.71112382e-01, 6.76680505e-02, 9.36075822e-02,
          1.27175927e-01, 6.94017634e-02, 1.96232989e-01, 0., 0.,
          2.36409217e-01, 1.11816697e-01, 1.69130936e-01, 2.04940900e-01,
          7.22804666e-02, 1.72708809e-01, 0., 0., 6.72527552e-02,
          1.35716334e-01, 1.08516783e-01, 6.88675046e-02, 0.,
          4.98833582e-02, 0., 0., 2.20348462e-01, 1.38151184e-01,
          8.29301775e-02, 1.90924138e-01, 7.27801099e-02, 2.08245710e-01,
          1.98626772e-01, 7.99521729e-02, 2.72890151e-01, 0., 0., 0. ]
      - [ 2.77455539e-01, 1.44963026e-01, 8.39124992e-02, 2.85470486e-01,
          0., 0., 0., 0., 0., 5.20816483e-02, 1.58568799e-01,
          1.64654732e-01, 1.02174900e-01, 1.32856622e-01, 9.80980247e-02,
          1.37375876e-01, 1.88652173e-01, 2.16786876e-01, 2.00781122e-01,
          1.51605189e-01, 0., 0., 0., 0., 0., 0., 0., 0., 3.03340733e-01,
          1.11675411e-01, 9.22596976e-02, 5.06363958e-02, 3.93501967e-02,
          2.97119282e-02, 0., 0., 2.53225058e-01, 1.51195720e-01,
          1.02412149e-01, 2.09856912e-01, 1.81124166e-01, 1.46333307e-01,
          0., 0., 0., 0., 2.63211429e-02, 3.80048007e-02, 0.,
          1.37068834e-02, 0., 0., 1.66000366e-01, 5.64600378e-02,
          1.05626024e-01, 1.09789461e-01, 2.44736955e-01, 1.05787404e-01,
          1.72712505e-01, 9.02888626e-02, 2.76354790e-01, 0.,
          2.42305752e-02, 0. ]
      - [ 1.86097339e-01, 1.12784013e-01, 1.38081744e-01, 1.26577660e-01,
          0., 6.99783862e-02, 2.02184711e-02, 1.59340605e-01,
          9.93827730e-02, 1.57294765e-01, 3.94674614e-02, 9.93503630e-02,
          1.18499003e-01, 6.16387054e-02, 1.08027250e-01, 5.13564236e-02,
          1.75498083e-01, 2.41273955e-01, 1.24195643e-01, 0.,
          1.57404795e-01, 0., 1.01214789e-01, 5.06267883e-02, 0.,
          1.21200196e-01, 8.71884525e-02, 0., 2.41627648e-01,
          7.45177418e-02, 9.04935822e-02, 8.43662545e-02, 1.20312214e-01,
          2.06851870e-01, 9.39336568e-02, 1.03531912e-01, 1.42830357e-01,
          9.92584303e-02, 1.40488788e-01, 1.39522761e-01, 2.08078831e-01,
          1.30932912e-01, 0., 0., 0., 1.23070300e-01, 9.84056145e-02,
          1.36298820e-01, 1.16761066e-01, 3.00289057e-02, 1.59349740e-01,
          1.51028141e-01, 2.08206311e-01, 8.71607363e-02, 5.60957678e-02,
          1.29163325e-01, 1.27872050e-01, 1.83051705e-01, 2.37093985e-01,
          1.52927816e-01, 2.28100941e-01, 0., 0., 0. ]
      - [ 1.86220542e-01, 1.65240526e-01, 1.32531300e-01, 1.39747709e-01,
          7.54652247e-02, 8.15953016e-02, 1.03690043e-01, 1.10537037e-01,
          1.11652188e-01, 1.64904743e-01, 6.04266375e-02, 5.74294850e-02,
          1.14219725e-01, 1.12222806e-01, 1.11110516e-01, 4.27555628e-02,
          0., 1.44275367e-01, 2.23194301e-01, 0., 1.25269353e-01, 0.,
          6.44389689e-02, 0., 0., 4.84949090e-02, 0., 1.22732334e-01,
          2.71928370e-01, 6.11638092e-02, 6.04441687e-02, 1.01045601e-01,
          1.61575854e-01, 1.39554262e-01, 4.17542607e-02, 0.,
          1.68767259e-01, 1.52329385e-01, 1.59772098e-01, 1.80101916e-01,
          1.20289490e-01, 1.80971339e-01, 5.94368167e-02, 8.65640491e-02,
          3.08169741e-02, 8.32765549e-02, 1.54124394e-01, 1.39959514e-01,
          0., 2.06085443e-01, 8.04751441e-02, 1.38264939e-01,
          2.21468464e-01, 8.10223818e-02, 2.16654744e-02, 9.22129378e-02,
          1.29381374e-01, 2.29079321e-01, 1.89157322e-01, 8.89773890e-02,
          2.60235250e-01, 0., 0., 0. ]
      - [ 1.15802944e-01, 1.00813523e-01, 1.62224799e-01, 1.18896037e-01,
          6.11856878e-02, 0., 1.70160398e-01, 1.11673690e-01,
          1.30942568e-01, 1.33077174e-01, 0., 8.91483799e-02,
          1.05892658e-01, 1.51158810e-01, 8.96018222e-02, 1.84277728e-01,
          8.77609998e-02, 2.89170265e-01, 0., 5.63599579e-02,
          7.52261728e-02, 4.98212650e-02, 0., 7.44344890e-02, 0., 0.,
          5.58753200e-02, 0., 2.53472805e-01, 1.16383202e-01,
          4.36778180e-02, 7.59656727e-02, 2.23871797e-01, 9.59853977e-02,
          4.68909778e-02, 4.34691906e-02, 1.85308054e-01, 1.33869931e-01,
          1.59072310e-01, 2.09314525e-01, 1.11886211e-01, 1.52244866e-01,
          0., 0., 0., 8.64858851e-02, 1.80781126e-01, 5.66762760e-02,
          8.28291625e-02, 1.87148228e-01, 8.39720592e-02, 1.60562709e-01,
          1.55787811e-01, 1.09940648e-01, 8.28293934e-02, 7.17736781e-02,
          1.58653677e-01, 2.93067247e-01, 1.38624012e-01, 8.54376405e-02,
          2.25053281e-01, 0., 0., 0. ]
      - [ 1.01093985e-01, 2.05853894e-01, 1.44521460e-01, 1.91944182e-01,
          0., 0., 0., 0., 7.49478415e-02, 1.38580441e-01, 1.10813692e-01,
          1.78011999e-01, 8.79391357e-02, 1.15090087e-01, 9.17046815e-02,
          4.09787185e-02, 7.21465424e-02, 3.39862317e-01, 0., 0., 0., 0.,
          5.07570207e-02, 5.91608062e-02, 0., 0., 4.54843566e-02, 0.,
          2.34118730e-01, 7.57718682e-02, 1.04817875e-01, 1.53145880e-01,
          1.46626294e-01, 1.74963951e-01, 5.39112501e-02, 0.,
          1.85205087e-01, 1.61685720e-01, 1.35916516e-01, 2.70592809e-01,
          8.27314481e-02, 1.14820659e-01, 0., 0., 1.47524819e-01, 0.,
          1.08685330e-01, 1.29637316e-01, 0., 1.18033238e-01, 0., 0.,
          2.03373343e-01, 1.43494904e-01, 9.37852189e-02, 1.66364074e-01,
          5.18359989e-02, 3.09278369e-01, 1.16904341e-01, 8.95271152e-02,
          2.36694306e-01, 0., 0., 0. ]
      - [ 1.73524454e-01, 1.67689338e-01, 1.32354945e-01, 1.63661554e-01,
          2.03044433e-02, 0., 6.28495216e-02, 8.37573111e-02,
          1.07253537e-01, 6.87089339e-02, 1.40162811e-01, 7.61119351e-02,
          8.31284523e-02, 1.12463094e-01, 1.23629808e-01, 1.21008396e-01,
          1.63067102e-01, 2.52995878e-01, 1.42075524e-01, 0., 0.,
          8.61370713e-02, 0., 9.21161622e-02, 0., 8.18952844e-02, 0., 0.,
          2.08628297e-01, 1.15720987e-01, 1.14616252e-01, 1.35751739e-01,
          2.15313524e-01, 7.89084379e-03, 3.41993533e-02, 8.00743327e-02,
          1.71699867e-01, 1.19697124e-01, 1.40642405e-01, 2.27017015e-01,
          2.14369729e-01, 1.04444727e-01, 0., 0., 0., 0., 7.92279691e-02,
          1.25250086e-01, 9.60193351e-02, 9.79717672e-02, 1.32503688e-01,
          1.66498974e-01, 1.22337535e-01, 1.35026023e-01, 4.65537831e-02,
          8.52259472e-02, 2.30813295e-01, 2.53495753e-01, 1.74651831e-01,
          1.28260210e-01, 2.32143566e-01, 0., 0., 0. ]
      - [ 6.90302551e-02, 1.23917505e-01, 4.02317606e-02, 2.39815041e-01,
          1.34252727e-01, 0., 0., 0., 0., 4.83837016e-02, 0.,
          1.68871507e-01, 1.87645197e-01, 9.02293548e-02, 1.03542738e-01,
          1.16368234e-01, 1.81318954e-01, 1.78130269e-01, 2.32272997e-01,
          0., 2.03649700e-02, 5.90382256e-02, 1.85251366e-02,
          7.07493275e-02, 0., 5.61817400e-02, 0., 1.48777410e-01,
          1.84289753e-01, 9.70806405e-02, 8.45983028e-02, 1.19301505e-01,
          2.09273309e-01, 1.28530011e-01, 0., 0., 2.01223299e-01,
          1.39291123e-01, 2.05234066e-01, 7.78657049e-02, 2.26245508e-01,
          1.51806518e-01, 0., 0., 1.29014120e-01, 1.17012776e-01, 0.,
          1.12605363e-01, 0., 1.05872251e-01, 0., 0., 2.57087827e-01,
          1.13661706e-01, 1.35541186e-01, 6.14347756e-02, 1.04288273e-01,
          2.92019904e-01, 7.96074420e-02, 2.24765882e-01, 1.88042238e-01,
          0., 0., 0. ]
      - [ 1.76020592e-01, 1.95318744e-01, 1.63785741e-01, 1.34340927e-01,
          8.77781585e-02, 0., 1.03163324e-01, 7.52425194e-02,
          2.06095517e-01, 1.00842565e-01, 0., 7.93588981e-02, 0., 0., 0.,
          1.23917475e-01, 1.11359313e-01, 1.64859697e-01, 1.97192609e-01,
          6.76593408e-02, 0., 0., 0., 0., 0., 4.83227223e-02,
          6.97347671e-02, 4.59346361e-02, 2.90072024e-01, 1.49142906e-01,
          1.21175870e-01, 0., 1.45875752e-01, 1.45670876e-01,
          7.34616891e-02, 1.48578450e-01, 1.50876716e-01, 1.50049254e-01,
          1.63362071e-01, 1.12991594e-01, 2.04079792e-01, 1.62586764e-01,
          0., 0., 9.00094882e-02, 2.78555229e-02, 1.20048359e-01,
          1.55857638e-01, 1.18616149e-01, 8.36041644e-02, 5.40936515e-02,
          1.80377901e-01, 1.78292096e-01, 7.82895982e-02, 1.11082025e-01,
          6.18735887e-02, 1.49638340e-01, 2.07178086e-01, 2.05637932e-01,
          1.25700310e-01, 2.54511446e-01, 0., 7.15139732e-02, 0. ]
      - [ 1.25673935e-01, 1.71118662e-01, 6.14494830e-02, 1.46574646e-01,
          0., 0., 1.74191687e-02, 1.85818881e-01, 1.28484115e-01,
          8.00479501e-02, 6.14494830e-02, 1.12583198e-01, 7.74183124e-02,
          6.80539832e-02, 1.15769409e-01, 1.20360747e-01, 1.14441425e-01,
          2.58088946e-01, 1.45009026e-01, 7.82093778e-02, 1.86452121e-01,
          0., 0., 5.36440164e-02, 7.14499503e-02, 8.81744847e-02,
          1.13524199e-01, 1.36150301e-01, 2.28472486e-01, 1.05850443e-01,
          1.01725802e-01, 9.56376791e-02, 2.02799335e-01, 9.89538059e-02,
          8.68344083e-02, 0., 1.55758530e-01, 1.07891314e-01,
          1.53728306e-01, 1.43095300e-01, 2.03744709e-01, 1.33292526e-01,
          0., 6.51722476e-02, 7.86062479e-02, 0., 1.43439859e-01,
          1.36420980e-01, 7.15277717e-02, 6.43497705e-02, 1.94339737e-01,
          1.62949175e-01, 1.53669313e-01, 6.68541789e-02, 1.12403005e-01,
          1.15503050e-01, 9.86307636e-02, 2.49060720e-01, 1.90057799e-01,
          1.06295437e-01, 2.18543425e-01, 5.75885884e-02, 0., 0. ]
      - [ 1.56187013e-01, 1.68149203e-01, 1.30011648e-01, 1.31714568e-01,
          1.12612337e-01, 9.96428803e-02, 0., 1.56404704e-01,
          1.41661659e-01, 9.60635915e-02, 6.93424717e-02, 0.,
          5.83698265e-02, 0., 1.14251822e-01, 1.12737507e-01,
          1.53995380e-02, 1.85256988e-01, 1.18157685e-01, 8.93735588e-02,
          1.80549428e-01, 0., 0., 0., 3.29507142e-02, 9.69819278e-02,
          5.23552075e-02, 2.01051727e-01, 2.44729429e-01, 9.62969437e-02,
          1.29148543e-01, 9.03081223e-02, 2.03464717e-01, 1.01452015e-01,
          3.80105339e-02, 9.66776088e-02, 1.34207904e-01, 1.42945170e-01,
          1.58700734e-01, 2.22629622e-01, 1.35388881e-01, 1.47625193e-01,
          0., 0., 0., 0., 1.33554116e-01, 1.95226729e-01, 1.44022003e-01,
          7.83154741e-02, 6.22439831e-02, 2.16526508e-01, 1.77048430e-01,
          0., 1.04874842e-01, 7.24597275e-02, 7.68414810e-02,
          2.32620314e-01, 1.77501112e-01, 2.41697669e-01, 1.38031214e-01,
          0., 0., 0. ]
      - [ 1.48037642e-01, 1.70987546e-01, 1.28644302e-01, 1.62056446e-01,
          0., 0., 0., 7.50971958e-02, 1.64651558e-01, 9.02300775e-02,
          1.22206144e-01, 0., 1.32874578e-01, 6.03360645e-02,
          1.14036359e-01, 1.22070432e-01, 1.27116144e-01, 2.33523309e-01,
          1.34707779e-01, 0., 1.15072519e-01, 1.07097566e-01, 0., 0., 0.,
          0., 8.20913613e-02, 0., 2.10942090e-01, 1.17158212e-01,
          1.16146266e-01, 1.45785123e-01, 2.36582264e-01, 6.93587735e-02,
          0., 8.04034099e-02, 1.73500046e-01, 1.15423255e-01,
          1.71110094e-01, 2.06464335e-01, 1.35584995e-01, 2.01780945e-01,
          3.01848035e-02, 0., 0., 9.84158814e-02, 7.69427121e-02,
          1.23143747e-01, 5.68222404e-02, 1.22108333e-01, 1.00886263e-01,
          1.30213767e-01, 2.12505594e-01, 8.80188718e-02, 2.25662012e-02,
          1.36750370e-01, 1.88277021e-01, 1.86887756e-01, 2.47234061e-01,
          1.64618358e-01, 1.91646576e-01, 0., 4.09988351e-02, 0. ]
      - [ 1.24247976e-01, 1.83761433e-01, 1.54813215e-01, 1.24250934e-01,
          1.27305225e-01, 0., 2.04497594e-02, 0., 0., 1.78478017e-01,
          1.57427594e-01, 1.43368348e-01, 0., 7.53705874e-02,
          1.05006121e-01, 7.23230913e-02, 1.33028403e-01, 2.36780137e-01,
          1.43023670e-01, 0., 1.51782304e-01, 5.33727147e-02,
          1.05151571e-01, 0., 0., 1.20109409e-01, 9.13541019e-02,
          5.23082260e-03, 2.43399099e-01, 1.18481249e-01, 2.26700325e-02,
